%YAML:1.0
opencv_ml_svm:
   format: 3
   svmType: C_SVC
   kernel:
      type: LINEAR
   C: 1.
   term_criteria: { iterations:100 }
   var_count: 1764
   class_count: 2
   class_labels: !!opencv-matrix
      rows: 2
      cols: 1
      dt: i
      data: [ -1, 1 ]
   sv_total: 1
   support_vectors:
      - [ 1.41507257e-002, 1.30411359e-002, 3.12489662e-002,
          4.38137650e-002, 3.02856360e-002, 2.64595598e-002,
          3.03548798e-002, 1.01188971e-002, 1.87825710e-002,
          -5.71239134e-003, -2.22072899e-002, -1.71020236e-002,
          4.95968899e-003, 7.87175447e-003, -3.36448550e-002,
          -8.06578808e-003, -9.27584246e-003, -6.01037452e-003,
          -1.10770660e-002, 1.32020842e-003, -9.52357054e-003,
          -1.59590680e-003, 2.30831187e-002, 1.18800560e-002,
          -1.08429706e-002, -1.06207635e-002, -8.41001142e-003,
          -1.36185382e-002, -2.26806812e-002, -3.40454280e-002,
          -2.43189912e-002, 3.51215340e-002, -3.32178622e-002,
          -2.24699341e-002, -9.61113069e-003, -1.31250955e-002,
          1.02928886e-002, -5.70320198e-003, -1.96182691e-002,
          5.47088571e-002, 3.38180438e-002, 2.32181028e-002,
          3.93709093e-002, 1.42839728e-002, 1.32429777e-002,
          7.70644145e-003, -1.69367231e-002, -4.94333915e-002,
          -2.58211158e-002, -2.38039307e-002, -2.95678200e-003,
          7.17592891e-003, 1.70334168e-002, 1.01320921e-002,
          1.59601029e-002, -9.93231777e-003, -2.21596919e-002,
          4.01596017e-002, 1.89405363e-002, 1.46485027e-002,
          1.51909431e-002, 2.74552088e-002, 1.50918141e-002,
          2.52841301e-002, -1.03927078e-002, -2.81411428e-002,
          -2.81433184e-002, 5.83226234e-003, -1.62697826e-002,
          -5.37057919e-003, 1.22576337e-002, 3.23122256e-002,
          1.09921331e-002, -3.43477167e-003, -2.10292842e-002,
          -2.16132514e-002, -1.52518842e-002, 6.21749554e-003,
          1.73517615e-002, 2.28457805e-002, 1.47523871e-002,
          8.12063739e-003, -1.93673535e-003, -2.55555119e-002,
          -2.51275338e-002, -2.22868267e-002, 4.50219814e-004,
          3.13773341e-002, 3.72003131e-002, 1.61974058e-002,
          3.22725773e-002, 2.42087021e-002, -3.85806686e-003,
          -2.06851047e-002, -9.84592270e-003, -8.84631742e-003,
          -3.71294911e-003, 1.02665480e-002, 2.60432065e-002,
          3.09040919e-002, 2.66075991e-002, 9.49368533e-003,
          -4.50836588e-003, 2.03207158e-003, 2.13988777e-003,
          1.58126336e-002, 3.21305022e-002, 2.95826718e-002,
          -4.00582794e-003, -1.74870566e-002, -3.07142586e-002,
          -2.70784125e-002, -2.94731651e-002, -3.56837967e-003,
          1.97669659e-002, 2.96063796e-002, 2.70760935e-002,
          2.41050087e-002, 3.88398208e-003, -2.74589304e-002,
          -2.69721523e-002, -3.99831310e-002, -2.09829006e-002,
          -2.86413394e-002, -1.89435470e-003, 2.57760100e-002,
          3.41313630e-002, 7.84240384e-003, -6.06941199e-003,
          -3.10783251e-003, -3.74546135e-003, -7.98240583e-003,
          -9.62983249e-005, 2.29059625e-002, 3.76803838e-002,
          3.92656736e-002, 2.67150961e-002, -1.45043409e-003,
          9.43094771e-003, 6.99952757e-003, -2.18797345e-002,
          -1.94557291e-002, 4.09557391e-003, 3.88831571e-002,
          2.53392439e-002, 3.17369923e-002, 1.30090509e-002,
          -4.62029967e-003, -2.72249859e-002, -2.16016509e-002,
          -3.66413184e-002, -2.57729646e-002, 1.63567718e-002,
          1.05556436e-002, 3.16396281e-002, 2.30384152e-002,
          9.20532178e-003, -1.10068126e-002, -1.91391278e-002,
          -2.78544687e-002, -7.74290925e-003, 1.68199488e-003,
          3.78269702e-002, 4.10218090e-002, 1.91542152e-002,
          1.07896533e-002, 6.44464185e-003, -1.62470862e-002,
          -1.07368045e-002, 4.70863283e-003, 3.78085114e-002,
          2.08746437e-002, 2.03724820e-002, 1.51897334e-002,
          3.60334292e-004, -6.35169074e-003, -2.13122368e-003,
          -8.70504603e-003, 1.23421121e-002, 3.10333204e-002,
          8.91887955e-003, 1.98755879e-002, 1.76280029e-002,
          6.81401277e-003, -8.21977016e-003, -5.32302912e-003,
          -1.21686431e-002, 7.81035225e-004, 1.18910894e-002,
          1.19683612e-002, 2.40642447e-002, 6.85363542e-003,
          6.19350176e-004, -6.29878929e-003, 1.16519695e-002,
          8.83049890e-003, 1.12905456e-002, 1.73197966e-002,
          1.41388774e-002, 3.06860398e-004, 1.92604656e-003,
          -7.90948607e-003, -1.97438523e-002, 4.87154117e-003,
          5.71209565e-003, 1.52163496e-002, 2.12267786e-002,
          1.44553473e-002, -1.86894520e-003, -2.15676590e-003,
          -2.70744204e-003, -1.07241683e-002, 7.52714835e-003,
          1.21319073e-003, 1.47369131e-002, 2.91735604e-002,
          5.32062771e-003, 5.10152103e-003, -1.19734788e-002,
          -1.50432019e-002, -1.26237702e-002, -1.12565858e-002,
          -1.23015586e-002, 9.97469667e-003, 1.41337449e-002,
          3.79374772e-002, 1.08376564e-002, 7.39175547e-003,
          1.97886582e-002, 1.86872836e-002, -5.73866477e-004,
          1.08746178e-002, 3.96706983e-002, 3.23068835e-002,
          1.12341493e-002, -2.43532029e-003, -1.49565907e-002,
          -1.08434949e-002, 3.10394121e-003, 6.12283533e-004,
          -2.18164232e-002, -8.67686234e-003, 1.94233637e-002,
          3.67455296e-002, 1.45704793e-002, 7.83427805e-003,
          8.47111747e-004, 6.22678176e-003, 4.81180381e-004,
          -1.43991895e-002, 1.15060806e-003, 3.19408476e-002,
          -1.05792610e-002, -1.27535062e-002, -2.55383532e-002,
          3.23744155e-002, 1.81139465e-002, 3.68354470e-002,
          -1.23894531e-002, -1.36574050e-002, -1.01958495e-002,
          -1.93448178e-002, -2.62613501e-002, -3.04594971e-002,
          -3.54658812e-002, 2.88663041e-002, -2.89276894e-003,
          -1.99839827e-002, -1.86762884e-002, -1.77390594e-002,
          1.50447618e-002, -1.44614102e-002, -2.23413389e-002,
          2.69399211e-002, 1.27001107e-002, 4.40520123e-002,
          3.01952865e-002, -5.09625941e-004, 1.19584929e-002,
          -2.71946024e-002, -2.92622298e-002, -3.64158452e-002,
          -5.08228168e-002, 1.68113057e-002, 2.05148552e-002,
          -8.02965835e-003, -2.00187657e-002, -1.44621041e-002,
          -1.63523678e-003, -1.33010074e-002, -1.49040753e-002,
          1.02155991e-002, 3.88708599e-002, 4.19506393e-002,
          -9.63021594e-004, -2.33359588e-003, -2.85434257e-003,
          2.16430333e-002, -2.03891899e-002, -2.74178293e-002,
          -3.48751508e-002, 1.43883433e-002, -3.60519625e-003,
          -1.34915970e-002, -2.53763655e-003, 3.04153655e-002,
          -1.94963310e-002, -2.19784677e-002, -2.66084690e-002,
          -3.34956613e-003, 3.43401879e-002, 6.34943247e-002,
          -8.47945549e-003, -1.64998155e-002, -4.70786123e-003,
          -4.33716411e-003, -2.02312674e-002, -2.35343445e-002,
          -3.05353161e-002, 2.53885612e-002, 1.84117886e-003,
          -2.61803288e-002, -7.93888979e-003, 6.89866580e-003,
          3.05991303e-002, -1.17902516e-003, -1.01374201e-002,
          -8.46864190e-003, -6.25883183e-003, -1.32603943e-002,
          -1.99608859e-002, -1.89399347e-003, 3.28032672e-002,
          3.22091356e-002, 1.37865348e-002, 1.48656324e-003,
          4.88550309e-003, 1.45384418e-002, -2.45896587e-003,
          -1.50891524e-002, -1.16723124e-002, 2.78208833e-002,
          2.04365011e-002, -1.07289683e-002, -1.09061887e-002,
          -6.69626798e-003, -2.73687416e-003, -1.79170445e-002,
          -2.73167156e-002, -7.17665209e-003, 2.19461452e-002,
          1.81564037e-002, -1.13080014e-002, -4.76167118e-003,
          2.14282214e-003, 1.43681997e-002, -6.22876978e-004,
          -5.24668442e-003, -1.96734350e-002, 2.65432168e-002,
          3.47976461e-002, 6.13440201e-003, -1.97401983e-004,
          1.32341599e-002, 1.48659702e-002, -2.37849099e-003,
          -1.21584078e-002, -1.28047401e-002, 2.61141472e-002,
          2.50897501e-002, 1.03148157e-002, -6.75747916e-003,
          1.98470689e-002, 1.33754313e-002, -8.81834608e-003,
          -2.31290683e-002, -1.04588903e-002, 2.53288951e-002,
          1.07962349e-002, -9.82951466e-003, -1.21449800e-002,
          -6.15506386e-003, 8.34850781e-003, 4.69721761e-003,
          5.99836418e-003, -5.71564585e-003, 9.07564349e-003,
          1.60860438e-002, -3.27222445e-003, -2.25492418e-002,
          -1.82168595e-002, -7.18512433e-003, -6.22284226e-003,
          -1.01482216e-002, -7.97282672e-004, 1.42680695e-002,
          2.38453858e-002, 9.86503810e-003, -3.20011890e-003,
          -8.92828743e-004, 2.11007576e-002, -6.21630810e-003,
          -2.34015714e-002, -1.13740442e-002, 3.45155634e-002,
          2.26816256e-002, 3.45231709e-003, -4.59621893e-003,
          -9.93710291e-003, 2.33873464e-002, 8.23356304e-003,
          -2.32007205e-002, -1.06826462e-002, 4.02187370e-002,
          1.44063318e-002, -3.33782472e-003, -2.55251750e-002,
          -2.60000899e-002, 1.82031153e-003, -1.40410904e-002,
          -2.54629776e-002, -1.00891078e-002, 2.11998411e-002,
          3.82537916e-002, 6.74952171e-005, -7.24906242e-003,
          5.42386202e-004, 2.27595903e-002, 7.38259451e-003,
          -3.07295229e-002, -1.64028015e-002, 2.37468313e-002,
          1.77358482e-002, -4.66737576e-004, -3.88395914e-004,
          -6.78556552e-003, 1.52513282e-002, 9.83796641e-003,
          -8.51886254e-003, -7.99892843e-003, 2.20319889e-002,
          -7.16540962e-003, -4.69770096e-003, -1.29050640e-002,
          -1.04387458e-002, -1.17793642e-002, 2.24297922e-002,
          -2.36793756e-004, 4.42736130e-003, -1.05499253e-002,
          3.80753167e-002, 2.81114341e-003, 1.06162168e-002,
          1.68917738e-002, 3.20908576e-002, 2.66911909e-002,
          -2.36695874e-002, -1.25514641e-002, 3.32105160e-002,
          2.17381921e-002, 6.09464385e-003, -6.51995325e-003,
          -9.60030593e-003, 2.92452574e-002, 3.19597162e-002,
          -9.52250790e-003, -2.22281530e-003, 2.31266357e-002,
          6.30077347e-003, 4.96249588e-004, -1.67486593e-002,
          -1.42105361e-002, -1.13617415e-002, 1.15899565e-002,
          -1.01216172e-003, 1.03753069e-002, 2.45213415e-003,
          4.70741279e-002, 4.17191274e-002, 2.26597558e-003,
          -1.63437314e-002, -2.22186968e-002, 6.84878323e-004,
          1.37570025e-002, 1.75743233e-002, 3.59205417e-002,
          9.04399808e-003, 1.40199410e-002, -5.12571167e-003,
          -1.95576940e-002, -2.29638573e-002, 7.51843117e-003,
          1.06503898e-002, 1.96428522e-002, 1.21547319e-002,
          4.45626080e-002, 5.00939041e-002, 3.46154869e-002,
          -7.17835873e-003, -4.00201380e-002, -1.93809438e-002,
          1.10769104e-002, 2.58774869e-002, 3.34799252e-002,
          3.59088108e-002, 1.41990995e-002, 1.70254372e-002,
          -1.72164645e-002, -3.79940942e-002, -3.12943221e-003,
          4.63544577e-002, 1.54844485e-002, 3.44960392e-002,
          -1.20643228e-002, 1.02678547e-003, -1.08668944e-004,
          -2.56341081e-002, -3.58627993e-003, -3.98223335e-003,
          -1.45938143e-003, -1.19779799e-002, -4.19796351e-003,
          5.54647930e-002, 3.71207409e-002, 4.69897240e-002,
          7.14924606e-003, -1.65639333e-002, -2.49989200e-002,
          4.40894552e-002, 5.20598739e-002, 6.20460734e-002,
          -1.19217411e-002, 7.33897928e-003, 2.34265178e-002,
          5.05685247e-003, -2.80116755e-003, 7.17512681e-004,
          -2.28265543e-002, -1.42729292e-002, -4.67031775e-003,
          -1.49470596e-002, -1.46146314e-002, -2.17824690e-002,
          1.97630152e-002, 3.63999009e-002, 2.64504664e-002,
          -1.74582377e-002, -1.63586326e-002, -9.92156472e-003,
          -4.25071968e-003, -1.21930810e-002, -9.38980468e-003,
          -1.03817545e-002, 2.85128448e-002, -3.26570752e-003,
          -2.34446973e-002, -1.24990856e-002, -6.58933353e-003,
          -1.65522564e-002, -2.06320570e-003, -4.41897986e-003,
          4.08536606e-002, 2.72171889e-002, 3.02804280e-002,
          -1.78491529e-002, -2.38898639e-002, -1.86998378e-002,
          3.23338225e-003, 1.51879009e-004, 2.18808046e-003,
          8.02255142e-003, 2.31550578e-002, 8.79043131e-004,
          -1.71070043e-002, -1.84312873e-002, -8.29605572e-003,
          2.97203474e-003, -2.69816862e-003, 7.70704355e-003,
          5.42829232e-003, 2.52806745e-003, -1.26618361e-002,
          -1.93870086e-002, -6.38265721e-003, 8.10346194e-003,
          6.46932563e-003, -2.16050018e-002, -1.31571135e-002,
          -6.13529189e-003, -5.53252734e-003, -7.19791744e-003,
          -4.85679181e-003, -1.76853896e-003, 1.73515342e-002,
          1.97577514e-002, 1.33533319e-002, 1.92474648e-002,
          1.78110655e-002, 3.65107669e-003, 3.12937400e-003,
          1.06495554e-002, -1.53391506e-003, 1.54049862e-002,
          2.14317106e-002, 6.75997650e-003, -1.52670348e-003,
          -4.60498594e-003, -2.38720514e-003, 4.82293544e-003,
          1.72145441e-002, 1.49443466e-002, 2.32937802e-002,
          2.09598197e-003, -2.57708468e-002, -2.48821415e-002,
          -1.22014470e-002, -1.06419402e-003, 1.09534981e-002,
          2.04249471e-002, 1.20171718e-002, 1.20413825e-002,
          5.42310812e-003, -1.05839744e-002, -2.43101511e-002,
          -1.02989078e-002, -7.22849136e-003, 2.72981101e-003,
          -1.07326666e-002, 4.63464530e-003, 1.13830417e-002,
          1.67342629e-002, -6.59878599e-003, -5.91249112e-003,
          -5.16937464e-004, -6.74714940e-003, 1.18536707e-002,
          2.42234934e-002, 8.19844380e-003, 2.35403609e-002,
          2.12516543e-002, -5.07471105e-003, -8.58089142e-003,
          5.77683235e-003, -8.30936246e-004, 5.63729880e-003,
          1.03856833e-003, 5.72051853e-003, 3.05876900e-002,
          5.05645527e-003, -3.17734433e-003, -8.05298798e-003,
          -2.89698807e-003, -5.01163444e-003, -2.06329878e-002,
          -3.50837484e-002, -1.59037076e-002, 6.36686618e-003,
          2.71586180e-002, 1.13705890e-002, 1.55473296e-002,
          2.05259174e-002, 1.23395193e-002, -2.17931308e-002,
          -3.00905555e-002, -2.06843503e-002, 1.56727005e-002,
          1.26175480e-002, 9.68697015e-003, 5.28346095e-003,
          1.41004073e-002, 5.93596790e-003, -7.02944910e-003,
          -2.04050299e-002, -1.00239404e-002, 1.61081180e-002,
          1.88605282e-002, 1.97106730e-002, 2.32296456e-002,
          1.77699681e-002, 1.04269618e-002, -5.53020556e-003,
          -5.19704632e-003, 1.65703464e-002, 1.07964966e-002,
          6.12646574e-003, -7.28431856e-003, -3.55379726e-003,
          2.89156009e-003, 1.15855131e-002, -1.15871029e-002,
          -3.56366821e-002, -2.38147397e-002, 8.75410438e-003,
          2.31376681e-002, -1.07762469e-002, -1.88249573e-002,
          -1.50561575e-002, 3.07269357e-002, 3.97329964e-002,
          -2.37824712e-002, -1.00773107e-002, 3.23417075e-002,
          2.70360615e-002, 6.27419213e-003, -1.15897448e-003,
          -1.09296413e-002, -1.13524273e-002, -1.12248315e-002,
          -3.22134956e-003, 1.35958279e-002, 1.27312588e-002,
          3.64895575e-002, 3.26502486e-003, -1.28651215e-002,
          -1.35490457e-002, 2.88144723e-002, 3.57837379e-002,
          1.22143589e-002, 2.66842153e-002, 2.15576924e-002,
          3.32906060e-002, -1.23320725e-002, -1.68299973e-002,
          -1.64643154e-002, -3.14963609e-003, 5.88629209e-003,
          -3.02152112e-002, -1.90141816e-002, 2.46638898e-002,
          2.30974592e-002, -9.06721252e-005, -1.11466623e-003,
          -8.39265436e-003, -3.39517780e-002, -1.31048672e-002,
          -1.10745318e-002, -8.66965204e-003, 9.59102158e-003,
          4.65311520e-002, -5.74433617e-003, -1.49170198e-002,
          -1.27502829e-002, 2.45865919e-002, 1.64654609e-002,
          -5.41020278e-003, 2.43334714e-002, 3.11726648e-002,
          5.59667349e-002, -4.60914103e-003, -1.28553715e-002,
          -2.01238990e-002, -2.33319812e-002, 1.57747194e-002,
          1.79580897e-002, 3.75079177e-002, 5.00240996e-002,
          6.72392845e-002, 2.44448017e-002, 4.70844470e-002,
          2.70549934e-002, 3.92101798e-003, 6.93773292e-003,
          1.53371058e-002, 1.99426860e-002, 5.39774112e-002,
          -2.16288865e-002, -1.62089933e-002, -1.00511722e-002,
          -2.55906326e-003, 2.33301008e-003, -6.83450932e-003,
          -1.89164300e-002, -1.24200499e-002, -1.24806408e-002,
          6.56604115e-003, 2.93631130e-003, 7.73613527e-003,
          4.04695719e-002, 2.65924726e-003, 2.92371307e-002,
          -1.15329586e-002, 2.93968682e-004, 6.58783643e-003,
          -2.13364568e-002, -1.84011981e-002, -2.60334164e-002,
          -4.14348627e-003, 1.10233175e-002, -1.00538740e-002,
          -2.20795013e-002, -1.28364712e-002, -1.41738206e-002,
          -1.12181632e-002, -1.03848679e-002, -9.42570530e-003,
          2.62090564e-002, 3.16097364e-002, 3.41319963e-002,
          -7.65461801e-003, -1.16028227e-002, -1.41616464e-002,
          5.55263320e-003, -1.41365109e-002, -9.17087402e-003,
          -1.28699901e-006, 5.13628311e-003, -2.49591563e-003,
          -6.77509839e-003, -3.47756781e-003, 1.10947026e-003,
          -3.40362033e-003, -1.67704131e-002, -2.07750555e-002,
          2.80789007e-002, 2.44973917e-002, 2.62074620e-002,
          -1.46418456e-002, -1.22467941e-002, -1.32737691e-002,
          -1.71846792e-003, -1.80287473e-002, -4.94202971e-003,
          8.65940750e-003, 2.29007863e-002, -7.40030315e-003,
          -6.41567213e-003, -1.28472140e-002, -1.37734530e-003,
          9.77115985e-003, -9.15403757e-003, -1.02976337e-002,
          -1.62584037e-002, -2.86115948e-002, -2.07028668e-002,
          -4.42185579e-003, -1.88808260e-003, 1.76013019e-002,
          2.79274266e-002, 1.05671305e-003, -2.34471560e-002,
          -3.51792984e-002, -2.26641782e-002, -7.85100181e-003,
          3.04545392e-003, 6.41329214e-003, 1.82716344e-002,
          1.72270164e-002, -5.37352683e-003, 5.38085680e-003,
          -1.22351078e-002, -1.64645165e-002, -1.87034663e-002,
          -6.22625928e-003, 1.43588008e-002, 2.47590058e-002,
          3.55781727e-002, 5.56751154e-003, -1.86344620e-003,
          -2.47553810e-002, -2.25965604e-002, 8.81896776e-005,
          -2.22247676e-003, 1.91196688e-002, 2.82040387e-002,
          2.36553065e-002, -3.81561555e-003, -2.40785591e-002,
          -2.53675934e-002, -2.96371821e-002, -1.12923200e-003,
          1.50448084e-002, 4.40475205e-003, 1.83829293e-002,
          1.03961518e-002, -4.98499861e-003, -2.86572706e-002,
          -1.99132543e-002, -1.83525085e-002, -2.82121683e-003,
          3.04730143e-003, 3.05968756e-003, 1.95318814e-002,
          2.55601145e-002, 3.40196351e-003, -4.53335978e-003,
          -1.71877593e-002, -1.45569090e-002, 7.73455249e-003,
          2.11742986e-002, 2.21090652e-002, 2.39529070e-002,
          6.07101480e-003, 6.42870786e-003, -4.36817587e-004,
          -7.04562943e-003, 7.14138523e-003, 1.16222184e-002,
          1.73291359e-002, 6.97493507e-003, 1.55515689e-002,
          2.60244473e-003, 2.43566302e-003, -3.88639118e-003,
          -7.70879094e-004, -3.50491633e-003, -6.40144106e-003,
          -6.54078694e-003, -1.77150418e-003, 5.11044357e-003,
          9.99285933e-003, 1.88045774e-003, -3.96477291e-003,
          -1.28002986e-002, -3.15563683e-003, -1.34566345e-003,
          1.72917231e-003, 7.70347053e-003, 1.96748856e-003,
          1.12881195e-002, 8.29104986e-003, -2.61349080e-004,
          1.68575242e-003, 1.45959258e-002, 9.35395155e-003,
          1.00134723e-002, 5.18445810e-003, 1.64042339e-002,
          7.21304445e-003, 2.06408184e-002, 8.39234702e-003,
          -6.19657524e-003, -2.26889577e-004, -9.55493748e-003,
          4.03850107e-003, 3.12236231e-003, -7.62994960e-003,
          2.32287664e-002, 3.41546396e-003, -1.36436736e-002,
          -2.06811633e-002, -2.26664301e-002, -3.48002231e-003,
          2.01386772e-002, 1.74912978e-002, 9.14855767e-003,
          3.95753607e-002, 9.90175456e-003, -2.28305138e-003,
          -1.95442550e-002, -1.46014038e-002, 7.67363980e-003,
          2.65550017e-002, 2.88664792e-002, 2.61130184e-002,
          8.40950850e-003, 8.82669166e-003, -2.04941980e-003,
          -1.18476683e-002, -6.39743404e-003, -7.39076501e-003,
          1.23689126e-003, -3.56853730e-003, -7.31216185e-003,
          3.84441279e-002, 1.46007100e-002, -4.01682826e-003,
          -1.30939921e-002, -1.68555509e-002, -6.15836168e-003,
          1.33203957e-002, 4.03480558e-003, 3.83958928e-002,
          4.70053554e-002, -1.20311426e-002, -2.26083659e-002,
          -2.38042772e-002, -3.01427208e-002, -2.04781797e-002,
          2.78261048e-003, 2.68343221e-002, 4.37576622e-002,
          6.04540296e-002, -1.11431128e-003, -2.24263333e-002,
          -2.62223016e-002, -4.29563560e-002, -1.78965591e-002,
          7.76895043e-003, 4.41279933e-002, 5.37300408e-002,
          4.33888361e-002, 2.53230939e-003, -2.98718307e-002,
          -2.94586141e-002, -4.02621590e-002, -2.45027225e-002,
          -2.91701849e-003, -2.25506420e-003, 4.90040891e-002,
          5.03358282e-002, 3.16981934e-002, -5.88446995e-003,
          -6.63888594e-003, -3.87551859e-002, -1.57320444e-002,
          -1.20641734e-003, 1.35358823e-002, 4.91163023e-002,
          -3.45245632e-003, 1.69535633e-002, -8.27824976e-003,
          3.41395587e-002, 2.86468249e-002, 2.69783530e-002,
          -2.37271264e-002, -6.12187944e-003, -5.60568739e-003,
          -1.93198156e-002, -1.84631720e-002, -2.15398408e-002,
          -3.73891380e-004, 3.19324918e-002, -2.52310000e-002,
          -4.10684422e-002, -2.20645927e-002, -1.86026264e-002,
          7.46306730e-003, 2.23487597e-002, 6.20198064e-003,
          2.27339566e-002, 2.65951753e-002, 5.36605045e-002,
          -1.67993014e-004, -9.29025654e-003, 4.67431545e-003,
          -1.50239570e-002, -1.39134098e-002, -1.24712978e-002,
          3.61085776e-003, 3.46831642e-002, -1.60226338e-002,
          -4.24083248e-002, -2.78729368e-002, -1.79277025e-002,
          -1.33182146e-002, -2.05819458e-002, -1.68122463e-002,
          3.45841274e-002, 3.11145075e-002, 4.71738866e-003,
          -2.46795621e-002, -1.38187837e-002, -1.90345068e-002,
          -9.95524228e-003, -3.89894061e-002, -2.58032177e-002,
          -1.61325512e-003, 3.28243598e-002, -1.23149538e-002,
          -6.84004859e-004, -5.60792582e-003, -7.11143063e-003,
          -3.34963226e-003, -1.00417295e-002, -6.61107851e-003,
          3.79127190e-002, 3.49142067e-002, 1.19744753e-003,
          -1.90812256e-002, -1.01353563e-002, -1.64215602e-002,
          4.46425518e-003, -1.83105804e-002, -2.68946923e-002,
          -8.44102632e-003, 2.77858414e-002, -2.76678882e-004,
          3.57843866e-003, -5.44511341e-003, 1.26489822e-003,
          -6.61773141e-003, -3.08730416e-002, -2.23904159e-002,
          -2.38742623e-002, -2.35446114e-002, -2.76622213e-002,
          -8.82394612e-003, 1.28719711e-003, 6.68528862e-003,
          3.76239605e-002, -1.27808156e-003, 8.98027420e-003,
          -8.60807858e-003, -2.45282110e-002, -1.08936494e-002,
          -4.79015149e-003, -4.29358304e-004, 2.18547750e-002,
          4.95848944e-003, -1.29094571e-002, -1.25217130e-002,
          -1.46068335e-002, -1.13932313e-002, -1.15027772e-002,
          -1.27182454e-002, -2.13236753e-002, 1.22185573e-002,
          3.70780788e-002, 1.95938461e-002, 2.04367805e-002,
          1.28366416e-002, -4.64205770e-003, 8.30076914e-003,
          1.42962867e-002, 1.49344755e-002, 3.17123346e-002,
          1.78565979e-002, -6.84681581e-003, 4.97064926e-003,
          -6.03092695e-003, -1.81182045e-002, -1.25883976e-002,
          -1.44707132e-003, -1.31657592e-003, 1.18611548e-002,
          -8.42814986e-003, -3.88073083e-003, 1.25447493e-002,
          -9.25139466e-004, 3.25286109e-003, -1.46091990e-002,
          -1.80960130e-002, -2.15515830e-002, -1.06616206e-002,
          3.92153077e-002, 1.94699112e-002, 2.54706051e-002,
          6.33418700e-003, 2.07274570e-003, 6.33467361e-003,
          3.46263661e-003, 1.50364675e-002, 2.74338294e-002,
          1.22808823e-002, 1.01837181e-002, 2.65042614e-002,
          1.07569741e-002, 5.53059904e-003, 1.18212868e-003,
          -9.39941313e-003, -4.09096945e-003, 1.44431917e-002,
          -3.34902643e-003, 1.48500991e-003, 4.52793995e-003,
          6.01417792e-004, 1.29219256e-002, -5.05280122e-003,
          -6.78192917e-003, -1.44505482e-002, -3.09233856e-003,
          8.33203178e-003, 2.10459400e-002, 1.03655057e-002,
          -7.60100037e-003, 3.20585072e-003, -1.00964829e-002,
          -7.61175016e-003, -3.72630032e-003, 3.75908171e-003,
          8.17824993e-003, 5.73487207e-003, 1.04533443e-002,
          6.79656630e-003, 9.51102469e-003, 3.20675806e-003,
          7.91377854e-003, 3.38448514e-003, 1.63080264e-002,
          2.65435651e-002, 2.24339459e-002, 6.91231014e-003,
          -2.22234391e-002, -1.78505736e-003, -3.02379625e-003,
          6.23248750e-003, 1.87583882e-002, 2.94957273e-002,
          1.93213411e-002, 3.54987904e-002, 6.99704373e-003,
          -1.65321212e-002, -1.98096875e-002, -2.05749534e-002,
          -1.43816788e-002, -7.74034671e-003, 8.76540970e-003,
          3.72033678e-002, 2.98398770e-002, -8.19952507e-003,
          -2.42175106e-002, -3.20925675e-002, -2.53691021e-002,
          -1.25170443e-002, -4.13960731e-003, 4.21819501e-002,
          3.49102505e-002, 3.94212902e-002, -4.76179458e-003,
          -2.70091835e-002, -2.65216548e-002, -6.10742439e-003,
          -1.71168544e-003, 2.19482072e-002, 3.81878503e-002,
          3.00010405e-002, 1.74621735e-002, -1.80175845e-002,
          -2.68432554e-002, -3.60160284e-002, -9.20724869e-003,
          -9.78629850e-003, 3.67675838e-003, 3.67024392e-002,
          5.31272478e-002, 4.75511700e-002, -2.62678824e-002,
          -2.98155285e-002, -2.58731563e-002, -1.55750401e-002,
          -1.77021250e-002, -8.90497398e-003, 5.65134622e-002,
          4.86843809e-002, 4.86058183e-002, -4.44105640e-003,
          -1.34126963e-002, -2.95053478e-002, -1.90177411e-002,
          -2.05007121e-002, -1.28608784e-002, 5.52820936e-002,
          5.69913462e-002, 2.15271655e-002, -3.70001495e-002,
          -2.36985944e-002, -1.37169156e-002, -6.92331558e-003,
          -9.76766460e-003, -5.36213350e-003, 3.64108384e-002,
          4.87907231e-002, 1.94351971e-002, -3.03417724e-002,
          -2.71802992e-002, -1.34039223e-002, -2.68117469e-002,
          -2.22318303e-002, -4.34373738e-003, 3.43935080e-002,
          -1.96251785e-003, -2.15678569e-003, -6.15965854e-003,
          3.88779044e-002, 3.55062112e-002, 4.65376228e-002,
          -2.59636175e-002, -1.55537035e-002, -3.41941207e-003,
          -1.63923185e-002, -1.58068985e-002, -2.53917389e-002,
          -2.02395115e-002, 3.93492393e-002, -1.45132495e-002,
          -4.68569919e-002, -2.68072207e-002, -2.09690332e-002,
          -1.69820807e-004, 9.58110020e-003, 3.74433249e-002,
          2.83199586e-002, 3.44332419e-002, 4.46520634e-002,
          -3.87005843e-002, -2.41092946e-002, -5.38751157e-003,
          -2.64807604e-002, -2.52424255e-002, -2.94266213e-002,
          -1.45875039e-002, 3.91442403e-002, -3.06965709e-002,
          -5.97076677e-002, -4.01884280e-002, -2.87094545e-002,
          -6.89627696e-003, -7.79627822e-003, -1.20117962e-002,
          3.25040743e-002, 3.82243656e-002, 1.12502649e-002,
          -2.69880760e-002, -2.13965401e-002, -1.91650204e-002,
          9.01833177e-003, -9.70772374e-003, -9.39377863e-003,
          -3.57965683e-003, 3.51013578e-002, -4.73298039e-003,
          -1.60673559e-002, -1.85825694e-002, 1.05413643e-003,
          -1.75082851e-002, -1.46789178e-002, -1.20639550e-002,
          2.62983013e-002, 3.52494009e-002, 1.79226100e-002,
          -2.76240669e-002, -2.90395729e-002, -2.74858680e-002,
          5.61108161e-003, -4.04373801e-004, 1.02680828e-002,
          1.10857310e-002, 3.51226553e-002, -3.05081834e-003,
          -1.25022884e-002, -1.88086517e-002, -9.30257980e-003,
          7.37947784e-003, -1.28269242e-002, -5.67082502e-003,
          -1.45219546e-002, -1.12794330e-002, -1.06168520e-002,
          -1.85228642e-002, -3.12430430e-002, 5.58935851e-003,
          2.42088009e-002, 2.14649718e-002, 2.99368966e-002,
          7.49500096e-003, 4.93561337e-003, 1.31443115e-002,
          1.08013693e-002, -2.59645982e-003, 1.40970787e-002,
          8.20769276e-003, 4.10450436e-003, 1.20540848e-002,
          -2.34328071e-003, -1.86796933e-002, -1.92571953e-002,
          -1.89363509e-002, -2.35536024e-002, -8.47078674e-003,
          1.69706214e-002, 1.83286723e-002, 2.96212118e-002,
          7.30801513e-003, 1.51411269e-003, 5.24498243e-003,
          1.05831232e-002, 1.19848212e-003, 3.31546157e-003,
          2.72495616e-002, 1.81607939e-002, 1.77948643e-002,
          3.41780786e-003, 8.14958010e-003, 9.54762381e-003,
          7.11823720e-003, 9.48181562e-003, 1.96378753e-002,
          1.77064873e-002, 2.08606897e-003, 1.48080112e-002,
          7.11736828e-003, 1.18108490e-003, 2.72039883e-003,
          2.78531597e-003, -6.32663490e-003, 1.12571223e-002,
          1.78150088e-003, 3.83928115e-003, 7.61612458e-003,
          4.44059307e-003, 1.34337391e-003, 7.14850053e-003,
          5.49574569e-003, 1.77720888e-003, 1.94659783e-003,
          3.37767345e-003, -2.03055348e-002, 1.29369015e-004,
          6.41163264e-004, -1.15466211e-003, -1.72025757e-003,
          4.84204665e-003, -2.23830272e-003, 8.44330527e-003,
          2.34315805e-002, 7.38856057e-003, 1.21848723e-002,
          9.31922533e-003, 1.22917620e-002, 6.68346370e-003,
          1.53340083e-002, 8.52401089e-003, 2.89483350e-002,
          2.51679718e-002, 3.20525165e-003, -1.45939896e-002,
          -2.13613324e-002, -8.23710393e-003, 2.14224891e-003,
          3.39047727e-003, 1.81080643e-002, 3.35256346e-002,
          1.87319294e-002, -5.01986127e-003, 4.82276431e-004,
          1.21420426e-002, 4.74571483e-003, 1.58671793e-002,
          2.15233248e-002, -4.78037447e-003, 2.74141952e-002,
          -2.74948892e-003, -2.03409307e-002, -2.32411716e-002,
          -2.05347575e-002, 3.46487468e-005, -1.96965970e-003,
          4.16205591e-003, -7.64092663e-003, 1.15139391e-002,
          3.55681367e-002, 1.82727892e-002, -1.66471153e-002,
          -1.28425388e-002, -9.53835808e-003, 1.34452628e-002,
          1.87171008e-002, 3.91849503e-002, 4.32634614e-002,
          1.20808790e-002, 6.47572940e-003, -2.51482408e-002,
          -1.30202770e-002, -6.52271789e-003, 1.30209727e-002,
          1.46678267e-002, 2.80695632e-002, 2.23208107e-002,
          7.53426133e-003, -1.95170995e-002, -1.65809356e-002,
          8.53031815e-004, 6.91940542e-003, 3.53447278e-003,
          6.08267216e-003, 1.33703584e-002, 1.65809132e-002,
          -2.53693620e-003, -6.59841439e-003, -2.17501651e-002,
          -6.28357567e-003, 3.31334188e-004, 4.19569574e-003,
          7.67809432e-003, 1.21692857e-002, 3.43209715e-003,
          2.59092171e-002, 1.00181699e-002, -2.16919836e-002,
          -5.65184606e-003, 1.18608736e-002, 1.63438600e-002,
          2.10644510e-002, 3.12620737e-002, 3.03689595e-002,
          2.49057449e-002, -6.99679251e-004, -1.85124390e-002,
          -1.78674720e-002, -3.70587618e-003, -6.77517476e-003,
          1.41026881e-002, 2.03661378e-002, 2.76074316e-002,
          -3.38292820e-003, -1.85258256e-003, -7.47391395e-003,
          2.61519291e-003, 3.75640322e-003, 1.39789637e-002,
          1.64672099e-002, 1.97012704e-002, 3.17087816e-003,
          9.56307538e-003, 4.12202813e-003, -4.38239286e-003,
          -9.91257932e-003, -2.01902967e-002, 3.39962915e-003,
          2.73090433e-002, 1.32852523e-002, -7.15549395e-005,
          3.86848318e-004, 2.61923764e-002, 3.47972214e-002,
          3.20414938e-002, 3.07115931e-002, 3.63334566e-002,
          -4.02982049e-002, -1.70513019e-002, -5.11185825e-003,
          -2.21691467e-002, -2.04608627e-002, -2.62262579e-002,
          2.59437511e-005, 2.95060836e-002, -4.89518456e-002,
          -5.52237034e-002, -4.33691368e-002, -2.77346168e-002,
          9.44162626e-003, 2.93715522e-002, -8.75416008e-005,
          4.64746393e-002, 2.55769882e-002, 5.53914048e-002,
          -4.34877053e-002, -1.25761870e-002, -6.83439022e-004,
          -1.55996904e-002, -1.00514684e-002, -3.43469973e-003,
          3.74319148e-003, 2.45684590e-002, -4.78738174e-002,
          -5.41664921e-002, -4.20094170e-002, -2.22602505e-002,
          -1.30737461e-002, -6.57740980e-003, -4.47582919e-003,
          5.78651726e-002, 2.75922678e-002, 1.18078070e-003,
          -2.77984682e-002, -3.79015170e-002, -3.18584815e-002,
          -1.24091739e-002, 6.37285644e-004, 8.70468374e-003,
          2.20117234e-002, 4.01064754e-002, 2.84752678e-005,
          -1.81540884e-002, -1.85407829e-002, -1.77499000e-002,
          -1.14969583e-002, 1.31375296e-002, 2.99905930e-002,
          6.23563901e-002, 2.76767183e-002, 2.23808829e-002,
          -3.02381311e-002, -3.58939879e-002, -2.38101874e-002,
          -2.62846649e-002, -4.00214875e-003, -1.65035352e-002,
          2.21571382e-002, 3.32310647e-002, 1.96796563e-002,
          -6.89597614e-003, -3.01845185e-002, -4.04225811e-002,
          7.65188271e-003, 1.30076855e-002, 1.68466959e-002,
          9.55171697e-003, 4.86470386e-003, 3.84987821e-003,
          -3.44104483e-004, -7.31321331e-003, 2.74413178e-004,
          2.49201730e-002, 2.69902628e-002, 3.71760838e-002,
          2.34944001e-002, 1.54610584e-002, 1.34691205e-002,
          1.35846445e-002, 5.85404830e-003, 1.44404639e-002,
          -4.71415510e-003, 7.86027592e-003, 4.10331925e-003,
          1.29536083e-002, 9.22827702e-003, 5.24636963e-003,
          -2.94913538e-003, -1.08593311e-002, -2.01578215e-002,
          5.38485358e-003, 1.92950014e-002, 1.81178525e-002,
          1.53144412e-002, 3.85540561e-003, 1.67435384e-003,
          -1.36228781e-002, -1.69266481e-002, -9.87483375e-003,
          7.64931552e-003, 3.00364569e-004, 1.78530589e-002,
          2.31936164e-002, 1.48382578e-002, 2.32533310e-002,
          2.57690959e-002, 1.16264923e-002, 1.02599338e-002,
          4.47703805e-003, -2.11896021e-002, 9.63618979e-003,
          1.72854513e-002, 1.82683431e-002, 1.50664700e-002,
          1.76778156e-002, 4.18426981e-003, 1.91674624e-002,
          -1.62442531e-002, -2.99891341e-003, 8.25992785e-003,
          1.35947634e-002, 8.15869961e-003, 4.56041098e-003,
          -2.28207149e-002, -2.28772759e-002, -1.37901399e-002,
          -2.07841527e-002, -3.07629798e-002, -1.66945048e-002,
          9.10616480e-004, 2.91975797e-003, 8.72703642e-003,
          -3.37400241e-003, -5.44782495e-003, -4.81228484e-003,
          3.00116818e-002, 5.86206932e-003, 1.34616708e-002,
          2.33017821e-002, 2.80542281e-002, 2.74288449e-002,
          2.46882308e-002, 9.34540946e-003, 3.70472148e-002,
          1.89978257e-002, -2.41601490e-003, -9.50020971e-004,
          -6.32434944e-003, 1.31150121e-002, -2.72266590e-003,
          3.77231836e-003, -1.71980087e-003, 2.21835468e-002,
          -1.62124876e-002, -2.29153670e-002, -2.18024533e-002,
          1.62079800e-002, 2.12717336e-002, 2.12960634e-002,
          1.23072695e-002, 7.89973512e-003, 1.66482991e-003,
          -1.34043777e-002, -2.72987671e-002, -3.35726961e-002,
          -1.00881504e-002, 1.73489665e-004, 1.04671745e-002,
          -2.41627032e-003, -1.18128229e-002, -1.46346577e-002,
          2.06120089e-002, 7.00687000e-004, -2.44446774e-003,
          4.28820029e-003, 2.10161395e-002, 1.29604265e-002,
          3.77959129e-003, -4.09040309e-004, 1.69418417e-002,
          1.91265978e-002, 1.26246959e-002, 4.17165924e-004,
          1.37963798e-002, 2.03898326e-002, 2.27728542e-002,
          3.10277734e-002, 1.78499557e-002, 6.76451810e-003,
          -5.18901972e-003, -1.37151368e-002, -1.36559410e-002,
          -2.22254358e-003, 7.99548626e-003, 1.88671034e-002,
          1.03437714e-002, -4.13522677e-004, -1.30657041e-002,
          1.31378428e-003, -3.21723847e-003, -1.55251776e-003,
          1.48201026e-002, 1.92858838e-002, 2.12506987e-002,
          2.34607961e-002, 1.40957022e-003, -1.37284575e-002,
          1.18941590e-002, 1.02361040e-002, 6.84031332e-003,
          1.92959909e-003, 4.78430564e-004, 1.49599658e-002,
          3.11432332e-002, 2.88538169e-002, 6.83936337e-003,
          2.77192369e-002, 1.63168181e-002, 7.61292758e-004,
          -8.75836704e-003, -1.06263049e-002, 1.84097246e-003,
          3.41932438e-002, 1.80867072e-002, 9.68613848e-003,
          -1.61345222e-003, 8.45651724e-004, 8.28606449e-003,
          1.28295515e-002, 3.90743557e-003, -5.15855569e-003,
          4.35000565e-003, -4.62446688e-003, -9.54311155e-003,
          4.93382802e-003, 8.80764052e-003, 7.61695625e-003,
          -1.14099518e-003, -3.79814068e-003, -1.61527600e-002,
          3.45776370e-003, 1.53875514e-003, -1.15433475e-002 ]
   uncompressed_sv_total: 42
   uncompressed_support_vectors:
      - [ 2.37901770e-002, 1.76271163e-002, 5.77381998e-002,
          2.16952741e-001, 3.08979511e-001, 6.33258522e-002,
          1.14651714e-002, 1.30988536e-002, 1.64973624e-002,
          3.71884234e-004, 9.22687759e-005, 7.17569217e-002,
          3.83949786e-001, 3.83949786e-001, 1.61910221e-001,
          6.74289884e-003, 1.52547145e-003, 6.66289940e-004,
          2.38634720e-002, 2.61556264e-002, 1.39630735e-001,
          3.83949786e-001, 1.91673607e-001, 1.26308491e-002,
          6.70473138e-003, 4.09574201e-003, 1.60597730e-002,
          7.03803555e-004, 2.96832557e-004, 1.12371512e-001,
          3.83949786e-001, 3.83949786e-001, 7.28682354e-002,
          2.06245668e-002, 4.05765837e-004, 6.00487983e-004, 0., 0.,
          4.12505716e-002, 2.29157194e-001, 3.67732823e-001,
          1.65099978e-001, 4.57770005e-002, 1.86759848e-002, 0.,
          4.41029062e-003, 1.28349187e-004, 1.03474632e-002,
          1.21341035e-001, 3.67732823e-001, 1.96727470e-001,
          1.33476689e-001, 5.94527051e-002, 9.22501367e-003, 0., 0.,
          3.09010185e-002, 2.79528916e-001, 3.67732823e-001,
          1.72841892e-001, 9.21872854e-002, 1.40642142e-002, 0.,
          8.40711221e-003, 1.56222505e-003, 4.21399483e-003,
          5.30202910e-002, 3.67732823e-001, 3.30515891e-001,
          2.50614494e-001, 6.14597276e-002, 1.10520637e-002,
          3.41624878e-002, 9.00078565e-003, 9.41732749e-002,
          4.62103784e-002, 2.23871455e-001, 9.16420296e-002,
          1.16393276e-001, 5.56167252e-002, 3.03012058e-002,
          1.95943862e-001, 5.92457540e-002, 2.84952968e-001,
          2.08245143e-001, 2.84952968e-001, 1.59898937e-001,
          2.58174598e-001, 1.29372939e-001, 1.47107586e-001,
          1.73468068e-002, 6.80389022e-003, 1.08589165e-001,
          4.19732668e-002, 1.95033744e-001, 1.56046286e-001,
          1.70436129e-001, 5.50938956e-002, 1.42189302e-002,
          1.13371588e-001, 6.03799820e-002, 2.84952968e-001,
          2.84952968e-001, 2.84952968e-001, 2.43623361e-001,
          2.84952968e-001, 1.21250235e-001, 8.14733729e-002,
          1.77583739e-001, 7.90786743e-002, 2.40551695e-001,
          2.10127562e-001, 2.40551695e-001, 1.08627148e-001,
          1.49459869e-001, 9.94639695e-002, 1.42541319e-001,
          2.12331295e-001, 9.23368931e-002, 6.54192418e-002,
          5.93099482e-002, 2.40551695e-001, 9.60919335e-002,
          1.69480935e-001, 2.31210202e-001, 2.40551695e-001,
          1.24108516e-001, 6.11947998e-002, 1.96871862e-001,
          2.28325039e-001, 2.40551695e-001, 1.34638965e-001,
          2.02809438e-001, 1.25212193e-001, 1.24060728e-001,
          9.57519263e-002, 3.08178756e-002, 5.36132716e-002,
          4.88053970e-002, 2.40551695e-001, 1.40929341e-001,
          2.29465544e-001, 2.05874845e-001, 1.43693537e-001,
          1.55029520e-001, 3.25955376e-002, 7.10129291e-002,
          4.09277044e-002, 1.83513284e-001, 7.86216110e-002,
          2.66575247e-001, 2.66575247e-001, 2.66575247e-001,
          6.34941682e-002, 1.31380158e-002, 3.95767428e-002,
          4.25381698e-002, 2.20003575e-001, 1.16987012e-001,
          2.66575247e-001, 2.66575247e-001, 2.39432827e-001,
          8.45522806e-002, 6.66310638e-002, 8.60486627e-002,
          6.78856969e-002, 2.33667642e-001, 1.16005279e-001,
          2.66575247e-001, 2.16864198e-001, 1.59741029e-001,
          4.33923639e-002, 6.99099228e-002, 7.21216500e-002,
          7.06462413e-002, 2.66575247e-001, 1.55561641e-001,
          2.66575247e-001, 1.29039124e-001, 9.02693942e-002,
          9.41550266e-003, 3.28699267e-003, 4.30277102e-002,
          1.00160360e-001, 3.29061478e-001, 1.72285303e-001,
          3.29061478e-001, 2.22705632e-001, 5.99706024e-002,
          1.05738249e-002, 1.54590337e-002, 4.47353348e-002,
          8.49391595e-002, 2.03038633e-001, 6.36584684e-002,
          1.07005462e-001, 2.80434042e-002, 1.04038576e-002,
          4.28424813e-002, 5.51167503e-002, 6.87935650e-002,
          8.54941159e-002, 3.29061478e-001, 3.29061478e-001,
          3.29061478e-001, 8.92436951e-002, 1.73453446e-002,
          3.38248461e-002, 6.08310439e-002, 5.88395596e-002,
          7.28035122e-002, 3.29061478e-001, 1.90236375e-001,
          3.29061478e-001, 4.09231521e-002, 6.46363711e-003,
          4.64087427e-002, 6.41586035e-002, 7.20027089e-002,
          7.83531591e-002, 1.29055470e-001, 1.13643840e-001,
          1.40551686e-001, 1.39357239e-001, 5.14129326e-002,
          9.78893116e-002, 1.25245214e-001, 1.13482326e-001,
          1.61550343e-001, 2.91538060e-001, 2.00171322e-001,
          1.51985124e-001, 1.30890146e-001, 7.79239312e-002,
          9.35012922e-002, 1.19689398e-001, 1.24257095e-001,
          1.28033191e-001, 2.50549614e-001, 1.39084175e-001,
          9.37156379e-002, 8.91840309e-002, 4.50720116e-002,
          2.27242157e-001, 2.65582472e-001, 1.68399498e-001,
          2.14145035e-001, 2.91538060e-001, 2.91538060e-001,
          1.14587262e-001, 2.28475586e-001, 2.91538060e-001,
          1.49950935e-002, 2.87104491e-002, 1.12554953e-001,
          3.59992981e-001, 2.00099483e-001, 2.38487963e-002,
          1.27601121e-002, 3.81577015e-003, 1.67525951e-002,
          7.74182903e-004, 3.35051125e-004, 6.38463199e-002,
          3.59992981e-001, 3.59992981e-001, 4.83837761e-002,
          1.19789299e-002, 3.61081213e-004, 6.39890786e-004,
          2.36093849e-002, 4.31955718e-002, 1.00276850e-001,
          3.59992981e-001, 3.59992981e-001, 7.92859644e-002,
          4.38911989e-002, 5.28815296e-003, 2.65849587e-002,
          3.65758664e-003, 1.56387943e-003, 4.23491932e-002,
          3.59992981e-001, 3.59992981e-001, 6.81115612e-002,
          4.10036463e-003, 8.11571546e-004, 4.40740172e-004,
          7.98194786e-004, 3.06675240e-004, 1.27531225e-002,
          2.93684632e-001, 3.31877738e-001, 1.13135651e-001,
          5.20617664e-002, 3.59791704e-003, 2.20655838e-005,
          1.06057143e-002, 1.25539927e-002, 4.56967615e-002,
          9.20929909e-002, 3.31877738e-001, 2.77652353e-001,
          1.27670318e-001, 2.35477760e-002, 6.06016628e-003,
          3.45286727e-002, 4.88416990e-003, 2.60516275e-002,
          3.31877738e-001, 3.31877738e-001, 1.12687036e-001,
          1.92224216e-002, 3.93813616e-003, 8.64173658e-003,
          9.80528742e-002, 8.72901082e-002, 2.29888633e-001,
          2.96312004e-001, 3.31877738e-001, 2.27668077e-001,
          8.03915784e-002, 2.52115820e-002, 8.56981501e-002,
          1.14449933e-002, 5.02606742e-002, 3.05230707e-001,
          1.16022810e-001, 1.15157075e-001, 6.60841390e-002,
          4.26363684e-002, 1.23440074e-002, 4.28427057e-003,
          8.13723505e-002, 2.18691051e-001, 3.05320382e-001,
          2.66359299e-001, 2.88009763e-001, 5.79631440e-002,
          6.34457022e-002, 4.12586406e-002, 5.52965291e-002,
          5.63720614e-002, 1.61582381e-001, 3.05320382e-001,
          2.50028402e-001, 1.74760446e-001, 3.60571630e-002,
          2.15495434e-002, 2.47186199e-002, 7.61772171e-002,
          1.00339368e-001, 3.05320382e-001, 3.05320382e-001,
          3.01833957e-001, 1.43212929e-001, 3.47032845e-002,
          2.31651329e-002, 5.50811216e-002, 1.33039802e-001,
          1.37145475e-001, 1.60448387e-001, 2.23452762e-001,
          1.66948110e-001, 2.15338573e-001, 4.71169911e-002,
          7.59091154e-002, 1.44483536e-001, 1.38810694e-001,
          1.79714665e-001, 6.61812723e-002, 1.04591273e-001,
          1.05123930e-001, 1.66225061e-001, 5.00968471e-002,
          8.40872601e-002, 1.63756475e-001, 2.05179557e-001,
          2.04199001e-001, 2.23452762e-001, 2.23452762e-001,
          1.94277450e-001, 1.86433464e-001, 4.99179401e-002,
          5.32804243e-002, 1.68181047e-001, 1.79299980e-001,
          2.23452762e-001, 2.23452762e-001, 1.96081311e-001,
          1.72433704e-001, 2.23452762e-001, 5.29184975e-002,
          1.25135228e-001, 2.23452762e-001, 2.23452762e-001,
          1.59474894e-001, 6.06746823e-002, 7.91454688e-002,
          4.61007692e-002, 8.40614438e-002, 3.62068154e-002,
          1.17204867e-001, 2.42003143e-001, 2.46911511e-001,
          1.01011455e-001, 1.03488952e-001, 1.89195469e-001,
          8.31565857e-002, 1.63328633e-001, 7.71380141e-002,
          1.76209241e-001, 1.91133752e-001, 1.01071917e-001,
          2.12327138e-001, 1.14181697e-001, 1.20232962e-001,
          6.16368465e-002, 1.24172851e-001, 1.01408988e-001,
          2.42120951e-001, 2.46911511e-001, 2.46911511e-001,
          2.46911511e-001, 2.08095998e-001, 2.46911511e-001,
          1.12749130e-001, 1.03044055e-001, 1.75615549e-001,
          2.31769040e-001, 2.46911511e-001, 1.66187271e-001,
          1.20318703e-001, 1.85848117e-001, 2.76949018e-001,
          1.71305418e-001, 2.76949018e-001, 1.92609772e-001,
          2.76949018e-001, 4.61956002e-002, 1.81620587e-002,
          4.38523553e-002, 1.13789216e-001, 1.67183295e-001,
          9.36481431e-002, 2.76949018e-001, 1.49987131e-001,
          2.43300468e-001, 1.75585449e-002, 7.77780684e-003,
          2.44424284e-001, 2.61043638e-001, 2.76949018e-001,
          2.10030124e-001, 2.33444512e-001, 1.16151348e-001,
          8.06245208e-002, 5.47939725e-002, 6.36202991e-002,
          4.50182408e-002, 7.90842399e-002, 1.83894321e-001,
          1.02342606e-001, 2.12036669e-001, 8.84991661e-002,
          5.33822440e-002, 8.04416835e-003, 1.83800552e-002,
          9.48601291e-002, 1.41437218e-001, 1.31093711e-001,
          1.33663833e-001, 2.61392087e-001, 1.85764328e-001,
          1.22748233e-001, 5.44994250e-002, 6.94935694e-002,
          1.75997853e-001, 1.69005349e-001, 1.70875341e-001,
          1.80422649e-001, 2.61392087e-001, 2.61392087e-001,
          9.81718004e-002, 2.48992860e-001, 2.61392087e-001,
          1.12423152e-001, 1.11196570e-001, 7.86301047e-002,
          9.45197791e-002, 2.35430986e-001, 2.02020779e-001,
          1.53632745e-001, 6.86424002e-002, 1.01322398e-001,
          1.69163167e-001, 1.15199178e-001, 7.99569711e-002,
          1.16459101e-001, 2.35638291e-001, 1.60669446e-001,
          1.37868196e-001, 1.68189690e-001, 2.10502192e-001,
          1.98078360e-002, 3.19811217e-002, 7.00853392e-002,
          3.02599698e-001, 3.60067576e-001, 8.92263576e-002,
          4.07406688e-002, 1.02881771e-002, 1.13785248e-002,
          1.93183415e-003, 1.88364473e-003, 3.81367095e-002,
          3.60067576e-001, 3.60067576e-001, 5.48858866e-002,
          4.66627674e-003, 1.10281876e-003, 8.78401115e-005,
          1.76311657e-002, 7.96512514e-003, 2.54702102e-002,
          3.02240223e-001, 3.60067576e-001, 1.39830947e-001,
          4.26997803e-002, 1.94023717e-002, 9.79488343e-003,
          6.37857534e-004, 1.57767464e-003, 1.57089122e-002,
          3.15361857e-001, 3.60067576e-001, 1.48158029e-001,
          6.14529708e-003, 3.84645449e-004, 0., 2.69257259e-002,
          2.28162613e-002, 4.57856581e-002, 2.31979623e-001,
          2.98316270e-001, 8.64273161e-002, 2.31088903e-002,
          6.02404494e-003, 1.16038397e-002, 1.01162501e-001,
          1.69756502e-001, 2.56289721e-001, 2.90960908e-001,
          2.98316270e-001, 1.31819487e-001, 5.46694659e-002,
          3.09753437e-002, 9.22021046e-002, 9.66805313e-003,
          3.71119715e-002, 1.20075196e-001, 2.61189193e-001,
          2.98316270e-001, 1.36657730e-001, 2.16227248e-002,
          1.84253305e-002, 1.07539799e-002, 7.02115297e-002,
          2.13804215e-001, 2.98316270e-001, 2.98316270e-001,
          2.98316270e-001, 1.37154460e-001, 4.00508530e-002,
          4.61148992e-002, 4.02760245e-002, 1.04181334e-001,
          2.59900838e-001, 2.59900838e-001, 2.59900838e-001,
          2.05242082e-001, 6.93059489e-002, 5.01479283e-002,
          9.77628902e-002, 2.33288705e-001, 1.02493390e-001,
          2.59900838e-001, 2.59900838e-001, 2.59900838e-001,
          1.45142823e-001, 7.71816373e-002, 5.64533025e-002,
          1.32164910e-001, 2.59900838e-001, 4.39175740e-002,
          2.06612065e-001, 2.59900838e-001, 2.59900838e-001,
          8.49701092e-002, 7.21850842e-002, 2.87039261e-002,
          7.29995146e-002, 8.91154632e-002, 2.90505048e-002,
          1.95339844e-001, 2.05905676e-001, 1.42004579e-001,
          8.66139680e-002, 6.86565638e-002, 4.44295444e-002,
          9.48091894e-002, 1.05458841e-001, 2.48911008e-001,
          2.48911008e-001, 2.48911008e-001, 2.48911008e-001,
          1.81471869e-001, 7.17627481e-002, 6.76547289e-002,
          2.03989223e-001, 2.48911008e-001, 2.48911008e-001,
          2.48911008e-001, 1.94929004e-001, 1.48527175e-001,
          1.88447356e-001, 9.80005935e-002, 2.48911008e-001,
          2.48911008e-001, 2.48911008e-001, 9.76950973e-002,
          1.15700759e-001, 1.19246453e-001, 8.10460597e-002,
          8.19812864e-002, 8.13635141e-002, 7.11510628e-002,
          8.87892693e-002, 1.03988074e-001, 1.33880898e-001,
          4.75822985e-002, 5.23562469e-002, 4.17868309e-002,
          6.35706112e-002, 1.11302473e-001, 1.15508899e-001,
          1.28120199e-001, 1.91882998e-001, 1.55494511e-001,
          1.06000729e-001, 9.05711576e-002, 9.18217972e-002,
          1.27900198e-001, 1.83175161e-001, 2.49298915e-001,
          2.49298915e-001, 2.03207403e-001, 2.49298915e-001,
          2.14632958e-001, 2.49298915e-001, 1.28284469e-001,
          1.41714796e-001, 2.49298915e-001, 2.49298915e-001,
          2.49298915e-001, 1.97170451e-001, 4.36072536e-002,
          2.42630262e-002, 3.60808149e-002, 5.07859364e-002,
          7.26330057e-002, 1.05650991e-001, 1.00370519e-001,
          1.31556317e-001, 1.42578751e-001, 4.70133871e-002,
          2.00302061e-002, 4.23318744e-002, 7.50309154e-002,
          2.32588619e-001, 2.39356712e-001, 1.45013794e-001,
          1.50337338e-001, 2.49298915e-001, 2.52302140e-001,
          2.35849530e-001, 2.52302140e-001, 1.91939294e-001,
          1.92802727e-001, 2.20367908e-001, 1.67964861e-001,
          1.14258781e-001, 1.21510364e-001, 5.43562360e-002,
          3.09113003e-002, 8.77540335e-002, 1.75810233e-001,
          2.42063552e-001, 1.98767290e-001, 7.71288499e-002,
          3.02754417e-002, 2.97865234e-002, 4.88810912e-002,
          2.18146462e-002, 4.87155281e-002, 1.25788763e-001,
          2.52302140e-001, 2.52302140e-001, 2.52302140e-001,
          1.43466875e-001, 2.52302140e-001, 1.10262278e-002,
          1.80257205e-002, 4.01269309e-002, 1.63248092e-001,
          1.99353918e-001, 2.52302140e-001, 2.35649094e-001,
          5.21324612e-002, 3.05670258e-002, 8.18399042e-002,
          6.04253821e-002, 7.71758258e-002, 1.54521853e-001,
          2.60840505e-001, 2.68449217e-001, 1.81474462e-001,
          5.37822843e-002, 4.36761864e-002, 1.11992076e-001,
          9.73974615e-002, 9.33446139e-002, 1.22782633e-001,
          2.68449217e-001, 2.51798213e-001, 1.72268510e-001,
          8.29397514e-002, 7.72368163e-002, 1.41183110e-002,
          5.17083332e-002, 1.07770741e-001, 2.40900159e-001,
          2.68449217e-001, 2.68449217e-001, 2.68449217e-001,
          5.47052063e-002, 1.62743814e-002, 5.45077994e-002,
          9.14145559e-002, 1.23939931e-001, 2.04822302e-001,
          2.68449217e-001, 2.68449217e-001, 2.08699852e-001,
          4.59736623e-002, 7.12790266e-002, 2.17103567e-002,
          7.45754875e-003, 7.17321457e-003, 2.00558499e-001,
          4.04966980e-001, 1.96978852e-001, 2.18166746e-002,
          1.24670081e-002, 1.14120916e-002, 3.10986070e-003,
          5.76215936e-003, 8.31130985e-003, 2.29628325e-001,
          4.04966980e-001, 2.41522431e-001, 8.69759638e-003,
          1.30213134e-003, 3.04697925e-004, 3.15521471e-002,
          1.66602097e-002, 9.95231885e-003, 1.35063335e-001,
          4.04966980e-001, 1.58492729e-001, 2.12226678e-002,
          1.29312025e-002, 9.56998672e-003, 1.27445692e-002,
          2.16664821e-002, 1.73353367e-002, 1.73310786e-001,
          4.04966980e-001, 2.67402649e-001, 1.78375244e-002,
          1.04417037e-002, 1.30954757e-003, 1.44804679e-002,
          3.54613587e-002, 1.13030456e-001, 2.12805331e-001,
          3.06823581e-001, 1.40403926e-001, 8.51586461e-003,
          2.29621474e-002, 2.49293558e-002, 5.83702512e-002,
          1.63819030e-001, 3.06823581e-001, 3.06823581e-001,
          2.99072355e-001, 1.08692542e-001, 1.34846568e-002,
          3.59578356e-002, 4.00966443e-002, 1.21964924e-002,
          5.47841564e-002, 9.95419696e-002, 1.82941243e-001,
          3.06823581e-001, 1.42807305e-001, 1.11991270e-002,
          2.52202731e-002, 1.51325734e-002, 6.41971231e-002,
          2.03787088e-001, 3.06823581e-001, 3.06823581e-001,
          3.06823581e-001, 8.40025544e-002, 2.27647666e-002,
          3.22066545e-002, 2.69797239e-002, 6.01590760e-002,
          1.52653962e-001, 2.50957996e-001, 1.79153278e-001,
          6.91593215e-002, 4.54603620e-002, 7.31778564e-003,
          1.66655630e-002, 2.43039131e-002, 1.46181077e-001,
          1.84282228e-001, 1.78995997e-001, 1.35521531e-001,
          6.26328364e-002, 3.02734151e-002, 1.85059980e-002,
          2.83408295e-002, 5.78860119e-002, 1.30483344e-001,
          2.60360003e-001, 2.67441392e-001, 2.67441392e-001,
          2.20306888e-001, 6.14346899e-002, 1.00600585e-001,
          4.77903448e-002, 3.97062264e-002, 2.67441392e-001,
          2.67441392e-001, 2.67441392e-001, 2.67441392e-001,
          2.67441392e-001, 1.09287247e-001, 2.45067477e-001,
          9.86871421e-002, 1.37725934e-001, 2.67630905e-001,
          1.24234281e-001, 1.30169928e-001, 1.21330626e-001,
          4.05533016e-002, 5.59916906e-002, 3.01305577e-002,
          3.26093324e-002, 1.78423792e-001, 2.67630905e-001,
          6.74208552e-002, 7.49247819e-002, 4.62351888e-002,
          5.03405482e-002, 1.08228065e-001, 7.16087744e-002,
          1.04027823e-001, 2.67630905e-001, 2.67630905e-001,
          2.01780707e-001, 1.97240025e-001, 2.32922733e-001,
          1.19902700e-001, 7.46412128e-002, 1.12915926e-001,
          7.08863959e-002, 2.67630905e-001, 2.67630905e-001,
          1.73551813e-001, 1.67888463e-001, 1.28290981e-001,
          1.77094981e-001, 2.13098302e-001, 1.66929886e-001,
          1.29469708e-001, 2.67630905e-001, 1.24165051e-001,
          4.70422544e-002, 3.84768285e-002, 1.52769862e-002,
          4.77632210e-002, 6.18285201e-002, 8.74284953e-002,
          1.50832221e-001, 2.25725681e-001, 4.47395593e-002,
          2.02860944e-002, 3.80524546e-002, 5.80449104e-002,
          1.58498257e-001, 1.16910532e-001, 8.94870609e-002,
          1.31494120e-001, 2.30156124e-001, 2.66631603e-001,
          1.67429999e-001, 1.44458205e-001, 7.88490921e-002,
          1.48607135e-001, 2.53950179e-001, 2.81953752e-001,
          2.81858653e-001, 2.81127244e-001, 1.36983737e-001,
          6.25262707e-002, 6.15118630e-002, 9.16987434e-002,
          1.10232837e-001, 2.81953752e-001, 2.81953752e-001,
          2.81953752e-001, 1.72703028e-001, 1.52542768e-002,
          2.47106068e-002, 7.16839433e-002, 1.44298151e-001,
          2.51360536e-001, 2.68730521e-001, 1.87447622e-001,
          1.04808539e-001, 2.33541191e-001, 5.03134588e-003,
          2.59293672e-002, 5.84018528e-002, 8.76780152e-002,
          1.76766619e-001, 2.51735032e-001, 2.81539172e-001,
          5.85436933e-002, 3.06385569e-002, 3.58322524e-002,
          3.99855338e-002, 6.76714256e-002, 1.77705556e-001,
          1.93219006e-001, 2.81539172e-001, 2.81539172e-001,
          2.53518522e-001, 7.14611188e-002, 3.46091352e-002,
          4.82633561e-002, 1.06597409e-001, 8.38908926e-002,
          2.21781597e-001, 2.77752429e-001, 2.81539172e-001,
          1.01087265e-001, 4.74589802e-002, 1.05153499e-002,
          9.70966145e-002, 1.29184574e-001, 1.70332327e-001,
          2.60904759e-001, 2.60904759e-001, 2.60904759e-001,
          5.40028512e-002, 2.08446663e-002, 6.12756759e-002,
          1.12598740e-001, 1.03463508e-001, 1.39470667e-001,
          2.60904759e-001, 2.49675542e-001, 1.46685094e-001,
          3.70491445e-002, 7.74428621e-002, 3.08186654e-002,
          1.35911927e-001, 1.97926193e-001, 1.63756147e-001,
          2.60904759e-001, 2.60904759e-001, 2.60904759e-001,
          1.57342151e-001, 6.22930005e-002, 6.75346777e-002,
          1.38005316e-001, 1.41318068e-001, 1.33471608e-001,
          2.60904759e-001, 1.64612889e-001, 2.05036491e-001,
          7.29405060e-002, 8.07335526e-002, 1.41515927e-002,
          8.38089082e-003, 1.98734645e-002, 8.80317688e-002,
          3.83123130e-001, 9.33592618e-002, 2.40923427e-002,
          1.44172199e-002, 3.44274356e-003, 8.17788113e-003,
          2.40376797e-002, 4.32417318e-002, 1.62604973e-001,
          3.83123130e-001, 2.37875447e-001, 2.19361149e-002,
          1.11508733e-002, 8.32450693e-004, 1.13188056e-003,
          2.22945609e-003, 3.15600149e-002, 1.74254879e-001,
          3.83123130e-001, 1.02445275e-001, 3.27719711e-002,
          1.18688000e-002, 1.80061336e-003, 8.93246289e-003,
          3.39883193e-002, 2.38369554e-001, 3.83123130e-001,
          3.83123130e-001, 2.36411572e-001, 3.34836990e-002,
          5.36844088e-003, 1.77219464e-003, 1.08133191e-002,
          4.36559655e-002, 4.82613668e-002, 9.02212337e-002,
          2.67674118e-001, 1.03830956e-001, 1.71687715e-002,
          2.67921370e-002, 1.43415611e-002, 4.89613302e-002,
          1.37887821e-001, 2.48075560e-001, 2.67674118e-001,
          2.67674118e-001, 5.89883961e-002, 3.53489108e-002,
          4.69068140e-002, 2.73152217e-002, 2.55984385e-002,
          6.79317787e-002, 2.06209704e-001, 2.65261859e-001,
          2.67674118e-001, 1.85644239e-001, 5.03827706e-002,
          2.71562971e-002, 1.78899691e-002, 2.15538904e-001,
          2.67674118e-001, 2.67674118e-001, 2.67674118e-001,
          2.67674118e-001, 2.67674118e-001, 1.21380068e-001,
          1.23508155e-001, 6.85671940e-002, 3.51293497e-002,
          1.40615731e-001, 2.36988708e-001, 2.36988708e-001,
          2.36988708e-001, 3.81934233e-002, 5.42092696e-002,
          3.38243358e-002, 2.67589781e-002, 1.05078958e-001,
          1.81994677e-001, 2.36988708e-001, 2.36988708e-001,
          1.99516818e-001, 7.80420080e-002, 1.65986866e-001,
          1.10536166e-001, 9.88625139e-002, 1.06766090e-001,
          2.36988708e-001, 2.36988708e-001, 2.36988708e-001,
          2.36988708e-001, 1.00814767e-001, 5.80468774e-002,
          1.31944582e-001, 5.28635159e-002, 9.03495550e-002,
          2.18621507e-001, 2.36988708e-001, 1.74718410e-001,
          1.57517895e-001, 1.29100874e-001, 1.71690121e-001,
          2.26287782e-001, 1.23863816e-001, 1.56681806e-001,
          1.01883747e-001, 1.41355440e-001, 1.25259638e-001,
          9.90057290e-002, 6.30666763e-002, 2.00042546e-001,
          1.83407426e-001, 1.57056361e-001, 1.43178850e-001,
          1.67533308e-001, 1.82091177e-001, 6.46148920e-002,
          9.85902324e-002, 1.54768661e-001, 1.67451516e-001,
          1.43217385e-001, 2.12821528e-001, 1.29701972e-001,
          1.33227959e-001, 2.40329891e-001, 1.16169102e-001,
          7.57598877e-002, 1.54356867e-001, 2.40329891e-001,
          2.40329891e-001, 1.44747153e-001, 2.09669769e-001,
          2.40329891e-001, 2.40329891e-001, 1.36993513e-001,
          5.19597158e-002, 1.00972638e-001, 2.40329891e-001,
          1.78657919e-001, 2.20907450e-001, 1.26655847e-001,
          1.22441053e-001, 1.12152636e-001, 6.15995005e-002,
          1.50648266e-001, 2.81519502e-001, 2.79806674e-001,
          1.35967240e-001, 1.67951331e-001, 6.69539049e-002,
          3.17648426e-002, 3.84682417e-002, 5.27280197e-002,
          1.75389767e-001, 2.81519502e-001, 2.81519502e-001,
          2.01297611e-001, 6.70343861e-002, 1.97211698e-001,
          1.37059510e-001, 1.63197041e-001, 6.03440069e-002,
          1.22807898e-001, 1.46901846e-001, 9.41270739e-002,
          9.79152098e-002, 2.36108989e-001, 9.50683802e-002,
          2.86874790e-002, 3.98519523e-002, 4.18775082e-002,
          2.81519502e-001, 2.81519502e-001, 2.81519502e-001,
          1.28166467e-001, 1.12308942e-001, 2.07678676e-002,
          1.41148437e-002, 1.02266381e-002, 4.64646816e-002,
          1.65424779e-001, 3.09011906e-001, 3.09011906e-001,
          1.11139134e-001, 1.82685070e-002, 2.66259182e-002,
          2.30895299e-002, 2.39153299e-002, 4.76143695e-002,
          1.13608003e-001, 2.09024355e-001, 1.63618520e-001,
          5.92357852e-002, 2.82191709e-002, 1.82192232e-002,
          8.82355403e-003, 1.91587154e-002, 8.52264166e-002,
          3.09011906e-001, 3.09011906e-001, 3.09011906e-001,
          2.00086281e-001, 4.14903350e-002, 1.02899028e-002,
          1.72412749e-002, 6.87074289e-002, 1.70231596e-001,
          3.09011906e-001, 3.09011906e-001, 3.09011906e-001,
          1.18703336e-001, 1.77590791e-002, 3.97895873e-002,
          7.07779005e-002, 9.28748325e-002, 1.30528018e-001,
          2.87414759e-001, 2.87414759e-001, 2.69471109e-001,
          1.67292804e-001, 7.11777359e-002, 4.58000712e-002,
          9.78495181e-002, 1.01320580e-001, 1.41879678e-001,
          2.58174062e-001, 1.42831221e-001, 1.23887800e-001,
          8.98527503e-002, 5.80318645e-002, 3.16767208e-002,
          4.89804260e-002, 1.64927900e-001, 2.87414759e-001,
          2.87414759e-001, 2.87414759e-001, 2.52211958e-001,
          1.06553175e-001, 3.97929326e-002, 6.38006404e-002,
          9.14967358e-002, 7.87856057e-002, 1.81772441e-001,
          2.87270725e-001, 1.67610511e-001, 9.84249040e-002,
          7.29643777e-002, 7.60577545e-002, 9.90402186e-004,
          6.45225286e-004, 1.99149903e-002, 1.70750096e-001,
          3.40652317e-001, 7.65280277e-002, 1.70666892e-002,
          4.41516750e-003, 3.36408429e-003, 8.11794028e-003,
          1.22655649e-002, 1.61959514e-001, 3.40652317e-001,
          3.40652317e-001, 2.79046416e-001, 1.52750492e-001,
          1.95270386e-002, 6.01566071e-003, 3.41105671e-003,
          6.19049883e-003, 3.45779806e-002, 1.78374186e-001,
          3.40652317e-001, 8.16221535e-002, 7.72849889e-003,
          2.70601176e-003, 5.93886105e-003, 3.01714242e-003,
          3.09100803e-002, 9.27448571e-002, 3.21202010e-001,
          3.40652317e-001, 2.41513312e-001, 2.02890575e-001,
          2.23838370e-002, 4.60200896e-003, 1.21919559e-002,
          2.21474431e-002, 9.72911566e-002, 1.56774446e-001,
          2.90451199e-001, 2.16137648e-001, 1.34234041e-001,
          3.00735869e-002, 7.71097653e-003, 1.04267053e-001,
          1.50603369e-001, 1.54259562e-001, 2.47522593e-001,
          2.90451199e-001, 2.90451199e-001, 2.90451199e-001,
          6.74451068e-002, 3.97851504e-002, 1.27885556e-002,
          1.67665780e-002, 3.11807953e-002, 1.04510210e-001,
          2.90451199e-001, 1.60600916e-001, 1.73248917e-001,
          3.66938971e-002, 2.18451545e-002, 4.51004952e-002,
          3.80245186e-002, 6.84214011e-002, 1.05910398e-001,
          2.90451199e-001, 2.90451199e-001, 2.90451199e-001,
          5.43187372e-002, 6.90906271e-002, 1.16362698e-001,
          2.42563426e-001, 2.09552601e-001, 2.49216363e-001,
          2.86967278e-001, 2.86967278e-001, 2.86967278e-001,
          1.60726011e-001, 6.62273988e-002, 5.33392392e-002,
          1.31868809e-001, 1.48304403e-001, 1.16160043e-001,
          1.29552305e-001, 1.50050312e-001, 1.33124188e-001,
          2.08193585e-001, 1.06251240e-001, 3.20777483e-002,
          4.24469560e-002, 5.19287065e-002, 8.74504894e-002,
          2.86967278e-001, 2.86967278e-001, 2.86967278e-001,
          3.63491476e-002, 4.48282473e-002, 1.53826587e-002,
          2.30218899e-002, 3.20821628e-002, 5.63975722e-002,
          2.56563962e-001, 1.85117319e-001, 5.75579368e-002,
          3.23837325e-002, 3.31627056e-002, 1.66296840e-001,
          1.23887561e-001, 2.28570119e-001, 1.58960134e-001,
          1.30092338e-001, 2.13082179e-001, 2.42796659e-001,
          2.42796659e-001, 1.71565965e-001, 2.42796659e-001,
          2.05292538e-001, 2.42796659e-001, 2.42796659e-001,
          1.09384574e-001, 1.03811681e-001, 2.42796659e-001,
          1.12938963e-001, 1.53567433e-001, 7.92315900e-002,
          6.30888566e-002, 4.87596579e-002, 1.22416466e-001,
          1.77319944e-001, 1.72485068e-001, 1.09264836e-001,
          6.58118054e-002, 7.57045299e-002, 8.87390673e-002,
          6.44948184e-002, 4.20254692e-002, 1.30126387e-001,
          1.84816033e-001, 2.42796659e-001, 2.42796659e-001,
          1.64564475e-001, 9.83920991e-002, 1.82600513e-001,
          8.75417814e-002, 1.18231408e-001, 7.87627250e-002,
          1.70496747e-001, 1.08635604e-001, 1.29480019e-001,
          7.56193697e-002, 1.90167010e-001, 1.37939259e-001,
          4.31318879e-002, 5.08881733e-002, 6.87733814e-002,
          2.73201078e-001, 2.73201078e-001, 2.73201078e-001,
          2.16786832e-001, 2.73201078e-001, 3.14352550e-002,
          1.78306848e-002, 1.96452159e-002, 5.18060289e-002,
          1.24880470e-001, 1.76645264e-001, 2.34087437e-001,
          8.02637860e-002, 7.20802918e-002, 3.74529026e-002,
          1.67996511e-001, 2.73201078e-001, 2.73201078e-001,
          2.73201078e-001, 1.56812578e-001, 1.36561111e-001,
          7.49038085e-002, 2.06890240e-001, 1.41817257e-002,
          1.38230147e-002, 1.03283457e-001, 1.59508422e-001,
          2.65065312e-001, 2.65065312e-001, 2.65065312e-001,
          1.17648877e-001, 6.54492006e-002, 2.67083687e-003,
          1.28944647e-002, 1.57585993e-001, 2.13109627e-001,
          2.65065312e-001, 2.65065312e-001, 2.45649695e-001,
          5.31849563e-002, 1.24865416e-002, 1.29780620e-002,
          1.81177750e-001, 2.65065312e-001, 2.65065312e-001,
          2.39311755e-001, 9.13687050e-002, 7.39088506e-002,
          1.77611727e-002, 4.68447730e-002, 1.17817698e-002,
          8.16170648e-002, 2.65065312e-001, 2.65065312e-001,
          2.17251956e-001, 1.02733150e-001, 7.22840652e-002,
          8.78933072e-003, 1.40296938e-002, 2.89836656e-002,
          3.78017314e-002, 2.84402162e-001, 2.84402162e-001,
          2.84402162e-001, 2.84402162e-001, 2.48448297e-001,
          4.14404906e-002, 3.89934406e-002, 7.14046657e-002,
          6.19148389e-002, 6.45503998e-002, 1.44502878e-001,
          2.84402162e-001, 9.92045924e-002, 7.39031211e-002,
          5.03031798e-002, 9.00174454e-002, 7.79411420e-002,
          3.76223475e-002, 2.18850628e-001, 2.84402162e-001,
          2.84402162e-001, 2.31841385e-001, 1.40149221e-001,
          5.55744879e-002, 7.85330310e-002, 1.44036278e-001,
          6.64729849e-002, 9.86335352e-002, 1.49148181e-001,
          2.63114482e-001, 9.84169543e-002, 9.02175158e-002,
          7.06490576e-002, 1.28830671e-001, 8.38660169e-003,
          7.91500509e-003, 2.89733745e-002, 2.11640045e-001,
          3.38251621e-001, 9.78635922e-002, 3.14042135e-003,
          5.92044974e-003, 5.48387738e-003, 1.58286258e-003,
          2.12311503e-002, 5.22316359e-002, 3.38251621e-001,
          3.38251621e-001, 1.36158973e-001, 6.15675226e-002,
          8.81968159e-003, 1.58463768e-003, 5.85485250e-003,
          5.28345164e-003, 1.66154094e-002, 2.79714733e-001,
          3.38251621e-001, 1.37924373e-001, 8.82331468e-003,
          4.16341377e-003, 2.90880748e-003, 4.64421604e-003,
          1.65599808e-002, 4.18749377e-002, 3.38251621e-001,
          3.38251621e-001, 3.38251621e-001, 1.21731147e-001,
          1.09311724e-002, 4.57086833e-003, 1.17210168e-002,
          1.31968949e-002, 2.98002772e-002, 1.95991874e-001,
          3.31184596e-001, 9.77970660e-002, 8.27622190e-002,
          1.89244617e-002, 2.44648363e-002, 6.31511137e-002,
          1.60629526e-002, 5.62212951e-002, 1.21475250e-001,
          3.31184596e-001, 3.31184596e-001, 3.31184596e-001,
          5.33475876e-002, 9.88716185e-002, 5.53637650e-003,
          1.73395183e-002, 2.54538506e-002, 1.73380896e-001,
          3.31184596e-001, 2.28255719e-001, 6.87855482e-002,
          4.31811204e-003, 5.09387674e-003, 1.38031654e-002,
          1.51724508e-002, 1.84419584e-002, 8.21467564e-002,
          3.31184596e-001, 2.92254597e-001, 2.55927503e-001,
          1.74464360e-002, 1.34901917e-002, 2.02878751e-002,
          2.68707424e-003, 1.22110173e-002, 2.05265768e-002,
          3.09495777e-001, 3.09495777e-001, 2.93541849e-001,
          1.22865653e-002, 2.28206441e-002, 4.75452142e-003,
          5.10064606e-003, 1.04139410e-002, 1.73017718e-002,
          2.95730889e-001, 2.35423863e-001, 1.18407212e-001,
          3.47952405e-003, 1.66380708e-003, 4.61624237e-003,
          1.26881362e-003, 4.80911927e-003, 1.10352272e-002,
          3.09495777e-001, 3.09495777e-001, 3.09495777e-001,
          9.68439877e-002, 3.98938730e-003, 4.41208249e-003,
          4.16444428e-003, 5.85228531e-003, 4.88928892e-003,
          2.46663332e-001, 2.45399863e-001, 3.09495777e-001,
          2.14029804e-001, 2.12371070e-002, 4.53281812e-002,
          3.00112143e-002, 1.65810511e-002, 5.50830588e-002,
          1.99384749e-001, 2.57460028e-001, 1.07643127e-001,
          9.51173380e-002, 5.66095933e-002, 7.00799525e-002,
          2.37387307e-002, 1.04840603e-002, 5.53398356e-002,
          1.69323593e-001, 2.57460028e-001, 2.57460028e-001,
          2.57460028e-001, 1.83771163e-001, 3.91710661e-002,
          3.02984696e-002, 2.16178745e-002, 9.69802216e-003,
          2.04486445e-001, 2.15107754e-001, 2.57460028e-001,
          2.21839994e-001, 1.06793396e-001, 2.02694267e-001,
          1.89443752e-001, 8.08000863e-002, 2.01471280e-002,
          1.86429203e-001, 2.57460028e-001, 2.41733193e-001,
          2.57460028e-001, 2.52316236e-001, 1.35178287e-002,
          7.69305415e-003, 5.23371138e-002, 5.76463453e-002,
          5.45355901e-002, 1.76863790e-001, 1.70991898e-001,
          7.42112845e-002, 3.96968499e-002, 8.40045791e-003,
          7.26293027e-002, 3.79772991e-001, 3.79772991e-001,
          1.85391083e-001, 3.60461399e-002, 2.19398513e-002,
          8.11901689e-003, 1.01780789e-002, 1.06724307e-001,
          2.00050756e-001, 3.79772991e-001, 1.65394366e-001,
          8.05743635e-002, 1.29833877e-001, 8.88882950e-002,
          6.87120929e-002, 7.22303391e-002, 3.42359059e-002,
          1.38034180e-001, 3.79772991e-001, 3.79772991e-001,
          1.19871512e-001, 3.77088115e-002, 2.05109119e-002,
          9.16643068e-003, 6.80449698e-003, 1.69949904e-002,
          2.66497791e-001, 3.94959897e-001, 3.94959897e-001,
          2.11785167e-001, 1.10157393e-002, 3.80013976e-003,
          6.21198770e-003, 1.44837480e-002, 2.18955856e-002,
          1.27728283e-001, 3.49392802e-001, 2.49214783e-001,
          9.39716995e-002, 2.22762395e-002, 1.45036895e-002,
          8.82978830e-003, 1.66250803e-002, 1.65190399e-002,
          4.26888615e-002, 3.94959897e-001, 3.94959897e-001,
          1.44709349e-001, 2.31564697e-002, 1.74174719e-002,
          1.23517700e-002, 8.86591058e-003, 1.93472560e-002,
          2.79027931e-002, 4.21689339e-002, 7.48340636e-002,
          1.00671947e-001, 3.16035450e-002, 1.50786294e-002,
          1.46792745e-002, 2.12306678e-002, 1.11456379e-001,
          9.72856283e-002, 1.80379555e-001, 2.27812320e-001,
          2.16850787e-001, 1.87036306e-001, 1.19092166e-001,
          4.36775498e-002, 1.01174705e-001, 1.58832759e-001,
          1.06665283e-001, 1.96842760e-001, 2.07729891e-001,
          2.27812320e-001, 1.98410466e-001, 1.65464938e-001,
          6.03930242e-002, 1.68652922e-001, 9.08121243e-002,
          1.87583640e-001, 2.24308118e-001, 1.44944698e-001,
          2.27812320e-001, 1.63049728e-001, 9.62466449e-002,
          6.71072304e-002, 1.27105877e-001, 8.31309929e-002,
          2.04291552e-001, 2.27812320e-001, 2.27812320e-001,
          2.27812320e-001, 1.84527844e-001, 1.58140615e-001,
          9.94873717e-002, 1.31780922e-001 ]
      - [ 1.22833103e-002, 3.76268588e-002, 6.77423850e-002,
          7.69607574e-002, 7.13178292e-002, 7.02226162e-002,
          1.92669611e-002, 8.47229641e-003, 2.63052946e-003,
          1.17667988e-001, 2.92907149e-001, 3.66470844e-001,
          7.49817342e-002, 6.37022555e-002, 3.76763865e-002,
          1.73621606e-002, 1.09623484e-002, 3.25235352e-002,
          1.10153623e-001, 3.03550303e-001, 3.66470844e-001,
          1.19036235e-001, 2.14720637e-001, 7.46000856e-002,
          2.96465028e-002, 9.60992184e-003, 7.37443492e-002,
          3.20297480e-001, 3.66470844e-001, 3.66470844e-001,
          1.23339333e-001, 1.34487301e-001, 4.75023836e-002,
          4.66927513e-002, 4.38277982e-002, 7.48105124e-002,
          1.69519797e-001, 2.81687558e-001, 2.81687558e-001,
          2.62315404e-002, 1.80944856e-002, 5.81858819e-003,
          6.80729141e-003, 6.70384988e-003, 4.82696630e-002,
          2.55422473e-001, 2.81687558e-001, 2.81687558e-001,
          1.63201410e-002, 2.00376622e-002, 3.73413004e-002,
          1.63955893e-002, 1.73894148e-002, 1.26198620e-001,
          2.81687558e-001, 2.81687558e-001, 2.81687558e-001,
          6.75949603e-002, 5.85720800e-002, 1.34976292e-002,
          5.01768738e-002, 7.16402531e-002, 1.17617100e-001,
          2.81687558e-001, 2.81687558e-001, 2.81687558e-001,
          4.06045988e-002, 6.87344447e-002, 8.29857141e-002,
          5.33030368e-002, 5.41412160e-002, 1.97485492e-001,
          2.63176471e-001, 2.63176471e-001, 1.81108281e-001,
          1.70741547e-002, 3.14499773e-002, 4.83710580e-002,
          7.78511241e-002, 6.66918680e-002, 2.63176471e-001,
          2.63176471e-001, 6.75395429e-002, 2.26735696e-002,
          2.04070583e-002, 3.08219399e-002, 8.37607030e-003,
          2.17329651e-001, 2.63176471e-001, 2.63176471e-001,
          2.13330612e-001, 2.63176471e-001, 2.63176471e-001,
          3.56804803e-002, 1.02990367e-001, 1.14293382e-001,
          5.75116500e-002, 2.11886503e-002, 1.30857393e-001,
          2.63176471e-001, 2.63176471e-001, 2.32326776e-001,
          3.80934104e-002, 4.27816547e-002, 1.79504454e-002,
          2.41724290e-002, 4.56796512e-002, 2.29116142e-001,
          2.49890715e-001, 4.24988307e-002, 1.44472420e-002,
          1.08323470e-002, 4.08552177e-002, 3.09783332e-002,
          1.62762761e-001, 1.94095030e-001, 2.49890715e-001,
          2.42569342e-001, 4.42713536e-002, 1.76774189e-002,
          2.49493979e-002, 2.31077522e-001, 1.98388845e-001,
          2.49890715e-001, 1.41247109e-001, 2.13082731e-001,
          2.49890715e-001, 2.49890715e-001, 1.25950634e-001,
          2.61073075e-002, 3.62325907e-002, 3.77980992e-002,
          5.30978665e-002, 6.63007200e-002, 2.05092341e-001,
          2.49890715e-001, 2.49890715e-001, 1.64622486e-001,
          6.63597286e-002, 1.75471008e-001, 2.43124872e-001,
          2.09109262e-001, 1.12286001e-001, 1.59094855e-001,
          1.25556126e-001, 7.00804815e-002, 4.07912135e-002,
          9.03981254e-002, 2.71903098e-001, 2.71903098e-001,
          2.71903098e-001, 1.28221899e-001, 8.53226334e-002,
          4.25658412e-002, 4.89087105e-002, 3.66947465e-002,
          6.03440851e-002, 1.04539864e-001, 4.29794900e-002,
          1.47388084e-002, 7.95038044e-003, 3.02732456e-002,
          2.71903098e-001, 2.71903098e-001, 1.94855347e-001,
          2.38550439e-001, 2.71903098e-001, 2.71903098e-001,
          2.71903098e-001, 1.43429652e-001, 2.25857928e-001,
          2.52014518e-001, 8.33388641e-002, 6.04661778e-002,
          8.13574269e-002, 1.59159034e-001, 1.08087264e-001,
          7.07230866e-002, 4.76018265e-002, 1.92257494e-001,
          8.95047858e-002, 9.83972400e-002, 8.78488943e-002,
          1.60525173e-001, 2.49087095e-001, 9.27140340e-002,
          5.52669726e-002, 2.75701974e-002, 4.89844680e-002,
          5.16814329e-002, 6.47592992e-002, 1.17130645e-001,
          1.50093749e-001, 2.49087095e-001, 1.14438139e-001,
          7.54306912e-002, 4.03317846e-002, 4.15962823e-002,
          2.49087095e-001, 2.29549274e-001, 1.17074400e-001,
          1.13203049e-001, 2.49087095e-001, 1.52506351e-001,
          2.45428488e-001, 1.32086739e-001, 2.49087095e-001,
          1.91622108e-001, 1.73737139e-001, 1.10835008e-001,
          1.65580392e-001, 2.49087095e-001, 1.45285785e-001,
          2.49087095e-001, 2.49087095e-001, 2.49087095e-001,
          2.95677297e-002, 6.66542649e-002, 1.49845704e-001,
          1.68969244e-001, 2.00344354e-001, 1.42748833e-001,
          8.60365480e-002, 8.07712823e-002, 5.07372729e-002,
          4.75717299e-002, 6.75551221e-002, 1.58729404e-001,
          2.39997506e-001, 2.39997506e-001, 2.03439638e-001,
          7.65773654e-002, 9.67874005e-002, 8.22475627e-002,
          1.33373141e-001, 1.51007190e-001, 1.13566071e-001,
          1.93071127e-001, 2.15445802e-001, 1.80606186e-001,
          2.20222503e-001, 2.39997506e-001, 2.39997506e-001,
          9.35951769e-002, 9.38949510e-002, 6.99173957e-002,
          1.52453586e-001, 2.39997506e-001, 2.39997506e-001,
          2.39997506e-001, 2.39997506e-001, 2.09910333e-001,
          8.33185986e-002, 2.00969562e-001, 2.69948214e-001,
          1.40776843e-001, 2.69948214e-001, 1.64760143e-001,
          9.60849822e-002, 7.75326975e-003, 5.27800433e-002,
          1.74510136e-001, 2.69948214e-001, 2.69948214e-001,
          8.52055997e-002, 2.04721376e-001, 8.83702710e-002,
          6.47521764e-002, 4.17381898e-002, 6.54572472e-002,
          2.17393339e-002, 3.51282880e-002, 1.28789023e-001,
          2.69948214e-001, 2.69948214e-001, 2.69948214e-001,
          1.30386159e-001, 1.91653837e-002, 1.26028806e-002,
          8.22743997e-002, 1.40235484e-001, 1.89963385e-001,
          2.69948214e-001, 2.69948214e-001, 1.65937766e-001,
          8.19653124e-002, 5.03907390e-002, 4.78910431e-002,
          2.32280061e-001, 2.00105235e-001, 1.99041516e-001,
          3.85078229e-002, 4.29229513e-002, 1.06848367e-002,
          5.04817553e-002, 9.73217934e-002, 1.37025699e-001,
          2.32280061e-001, 2.32280061e-001, 2.26675734e-001,
          7.38960430e-002, 1.29995137e-001, 4.78104353e-002,
          4.59374040e-002, 7.72400200e-002, 1.69041574e-001,
          2.32280061e-001, 2.32280061e-001, 2.06007376e-001,
          1.06725745e-001, 5.23127541e-002, 4.35810052e-002,
          3.91200110e-002, 8.64381045e-002, 1.11285120e-001,
          2.32280061e-001, 2.32280061e-001, 2.32280061e-001,
          2.32280061e-001, 2.32280061e-001, 1.48767963e-001,
          1.59053579e-001, 2.31553078e-001, 2.25091890e-001,
          1.82267949e-001, 1.92538187e-001, 2.64413059e-001,
          1.26209214e-001, 1.74073458e-001, 5.48524633e-002,
          1.69965960e-002, 1.18245874e-002, 6.56608790e-002,
          2.64413059e-001, 2.64413059e-001, 2.64413059e-001,
          9.71300602e-002, 6.47624806e-002, 2.90318504e-002,
          2.00510863e-002, 2.69283261e-002, 1.89498082e-001,
          1.20745115e-001, 1.25088349e-001, 2.64413059e-001,
          2.64413059e-001, 2.64413059e-001, 9.65270102e-002,
          6.78127408e-002, 8.72980803e-002, 9.99079794e-002,
          2.28397146e-001, 2.17611089e-001, 2.64413059e-001,
          2.33906731e-001, 1.36361569e-001, 5.42268790e-002,
          2.94739958e-002, 2.02911031e-002, 1.53203204e-001,
          2.91330516e-001, 2.91330516e-001, 2.42928669e-001,
          8.85638744e-002, 2.20899172e-002, 2.20067557e-002,
          2.24506650e-002, 5.23391217e-002, 2.44942233e-001,
          2.91330516e-001, 2.91330516e-001, 1.86680943e-001,
          6.25706911e-002, 2.38746777e-002, 6.28351942e-002,
          4.15534452e-002, 5.45562841e-002, 1.64664373e-001,
          2.91330516e-001, 2.35682011e-001, 1.03456423e-001,
          7.58538023e-002, 5.51923513e-002, 4.34299894e-002,
          2.71069370e-002, 2.71860808e-002, 2.41356567e-001,
          2.91330516e-001, 2.91330516e-001, 3.84435877e-002,
          2.35765055e-002, 1.11652343e-002, 2.45469175e-002,
          1.15783922e-002, 2.26088781e-002, 2.38191500e-001,
          2.22406700e-001, 1.78372875e-001, 7.64127150e-002,
          6.49676621e-002, 6.44594431e-002, 7.04448745e-002,
          4.44636010e-002, 4.94409688e-002, 1.57688066e-001,
          1.61358148e-001, 4.70465012e-002, 3.68322693e-002,
          2.83468403e-002, 9.35978964e-002, 8.99066404e-002,
          1.60720795e-001, 7.86914453e-002, 1.81734309e-001,
          3.48681569e-001, 3.48681569e-001, 2.25909017e-002,
          7.61564355e-003, 1.71230230e-002, 1.10748922e-002,
          1.49634387e-002, 5.91111630e-002, 3.48681569e-001,
          3.48681569e-001, 2.18459949e-001, 5.85440546e-002,
          8.54364131e-003, 5.12755774e-002, 3.74373980e-002,
          2.20292151e-001, 1.95153162e-001, 3.48681569e-001,
          1.24051474e-001, 4.78380099e-002, 2.67674830e-002,
          1.97729208e-002, 5.75143248e-002, 7.23719299e-002,
          2.13542402e-001, 1.03197023e-001, 1.30945787e-001,
          7.38584027e-002, 3.97449397e-002, 2.16858070e-002,
          4.25432399e-002, 7.25338981e-002, 5.08898422e-002,
          1.55286491e-001, 1.62777513e-001, 1.28834561e-001,
          3.11467499e-001, 1.11046731e-001, 3.68334763e-002,
          2.01642457e-002, 8.41403231e-002, 9.16402563e-002,
          3.11467499e-001, 3.11467499e-001, 3.11467499e-001,
          1.91346139e-001, 1.31763965e-001, 7.65812024e-002,
          7.68141448e-002, 1.21643417e-001, 1.50308073e-001,
          3.11467499e-001, 3.11467499e-001, 3.11467499e-001,
          9.16752815e-002, 5.75189590e-002, 3.99303809e-002,
          7.49851838e-002, 9.77322459e-002, 7.71291479e-002,
          1.59387067e-001, 2.42670879e-001, 1.71659172e-001,
          3.55918705e-002, 3.15041877e-002, 2.14127619e-002,
          3.30888666e-002, 7.39965960e-002, 2.11924225e-001,
          2.42670879e-001, 2.42670879e-001, 9.10816342e-002,
          2.42670879e-001, 1.51839599e-001, 1.01738960e-001,
          9.98669788e-002, 1.57924712e-001, 2.17116416e-001,
          2.42670879e-001, 2.42670879e-001, 2.42670879e-001,
          1.67073533e-001, 7.85612687e-002, 4.21287157e-002,
          7.10361600e-002, 2.04036281e-001, 2.42670879e-001,
          2.42670879e-001, 2.42670879e-001, 2.42670879e-001,
          2.94086505e-002, 3.09448447e-002, 1.30569369e-001,
          2.46183276e-001, 2.67599285e-001, 1.35556623e-001,
          1.68546855e-001, 3.63134630e-002, 7.33933644e-003,
          4.15897183e-002, 1.06679820e-001, 2.67599285e-001,
          2.67599285e-001, 2.67599285e-001, 9.02095139e-002,
          1.10314034e-001, 3.48287001e-002, 1.65594462e-002,
          1.36159003e-001, 1.38994783e-001, 2.67599285e-001,
          1.54950961e-001, 2.67599285e-001, 1.19668327e-001,
          1.79409891e-001, 5.31668849e-002, 9.30418745e-002,
          1.39276892e-001, 1.46745592e-001, 2.67599285e-001,
          2.67599285e-001, 2.67599285e-001, 9.67000574e-002,
          1.14043593e-001, 2.99607404e-002, 7.90967867e-002,
          9.86749381e-002, 2.43896827e-001, 2.43896827e-001,
          2.36387894e-001, 1.87671170e-001, 4.85128500e-002,
          2.24315748e-002, 5.52234650e-002, 4.43487875e-002,
          2.14239359e-001, 2.33349726e-001, 2.14095369e-001,
          1.56326920e-001, 1.62457347e-001, 1.07566193e-001,
          8.85831937e-002, 1.49816617e-001, 1.65134683e-001,
          1.02205306e-001, 1.09075688e-001, 1.87832966e-001,
          2.43896827e-001, 2.43896827e-001, 6.59888759e-002,
          1.57372132e-002, 4.95959148e-002, 3.40136364e-002,
          2.43896827e-001, 2.43896827e-001, 2.43896827e-001,
          2.43896827e-001, 2.43896827e-001, 8.68601203e-002,
          1.85904410e-002, 6.99520484e-002, 9.33007523e-002,
          1.70085400e-001, 1.60200253e-001, 2.32712820e-001,
          2.32712820e-001, 1.22320019e-001, 4.90112975e-002,
          5.38312159e-002, 6.69677109e-002, 1.17262319e-001,
          2.13833988e-001, 2.32712820e-001, 1.74600109e-001,
          2.32712820e-001, 1.14267334e-001, 3.43846753e-002,
          1.59052573e-002, 1.61219724e-002, 1.13969773e-001,
          2.32712820e-001, 2.32712820e-001, 2.14699507e-001,
          1.94651201e-001, 1.27515793e-001, 3.40437032e-002,
          1.83196105e-002, 7.43763521e-002, 2.32712820e-001,
          2.32712820e-001, 1.95010632e-001, 1.81585357e-001,
          2.32712820e-001, 2.18950391e-001, 3.16152237e-002,
          9.08744335e-003, 1.78282037e-001, 2.32712820e-001,
          2.88921684e-001, 2.88921684e-001, 1.24667332e-001,
          1.63639501e-001, 9.30482000e-002, 3.75461429e-002,
          6.85523031e-003, 1.21820988e-002, 2.16117918e-001,
          2.88921684e-001, 2.88921684e-001, 5.18780090e-002,
          2.71556191e-002, 2.05206033e-002, 1.42327398e-002,
          7.24146934e-003, 1.08110989e-002, 2.65297174e-001,
          2.29659528e-001, 2.16817379e-001, 1.87266797e-001,
          2.88921684e-001, 2.88921684e-001, 4.10219207e-002,
          1.42229267e-003, 7.83327818e-002, 1.64161593e-001,
          2.77562112e-001, 2.04838514e-001, 9.88542140e-002,
          8.05793852e-002, 9.99840572e-002, 2.32452787e-002,
          7.89353624e-003, 8.93086754e-003, 8.26334208e-002,
          3.40814710e-001, 3.40814710e-001, 3.51379663e-002,
          6.18053274e-003, 5.11589460e-003, 4.42270329e-003,
          1.08836833e-002, 7.20230490e-002, 3.40814710e-001,
          3.40814710e-001, 2.19106615e-001, 7.63037205e-002,
          5.32632181e-003, 5.73447533e-002, 5.20710722e-002,
          1.25288501e-001, 2.47631654e-001, 3.40814710e-001,
          2.08080694e-001, 9.48131531e-002, 4.54659276e-002,
          1.87887754e-002, 2.78612431e-002, 1.04116956e-002,
          1.83622465e-002, 6.22948892e-002, 1.76344663e-001,
          1.25413686e-001, 4.92034182e-002, 2.05915794e-002,
          3.79122957e-003, 8.44807103e-002, 9.43585411e-002,
          5.96178174e-002, 2.35759437e-001, 2.96053737e-001,
          2.32063159e-001, 6.93139359e-002, 2.22388394e-002,
          9.72801726e-003, 6.29482567e-002, 1.04759634e-001,
          2.45147973e-001, 2.45147973e-001, 2.45147973e-001,
          1.96965918e-001, 2.07136065e-001, 4.46203277e-002,
          2.87782960e-002, 4.88230027e-002, 1.45084187e-001,
          2.45147973e-001, 2.45147973e-001, 2.45147973e-001,
          7.10468888e-002, 3.92963216e-002, 8.36525206e-003,
          1.47897871e-002, 9.01234969e-002, 1.56355232e-001,
          1.46573052e-001, 2.41642162e-001, 2.45147973e-001,
          2.09233403e-001, 1.95807979e-001, 1.74554940e-002,
          1.72754601e-002, 5.15053011e-002, 1.43804386e-001,
          2.27500871e-001, 2.39784390e-001, 2.45147973e-001,
          2.68620968e-001, 1.54421151e-001, 3.23749818e-002,
          2.27243342e-002, 3.60361002e-002, 7.06825107e-002,
          1.13374479e-001, 2.02861533e-001, 2.68620968e-001,
          2.68620968e-001, 5.60283251e-002, 1.64980665e-002,
          2.46271379e-002, 6.64237961e-002, 6.15008138e-002,
          9.64932591e-002, 2.63517737e-001, 2.68620968e-001,
          2.68620968e-001, 1.62256047e-001, 2.02539787e-002,
          1.32461069e-002, 3.49548459e-002, 2.93326266e-002,
          7.96214342e-002, 1.57072991e-001, 2.68620968e-001,
          2.68620968e-001, 7.21897036e-002, 3.07206232e-002,
          5.32923341e-002, 1.21682942e-001, 1.23524711e-001,
          2.68620968e-001, 2.68620968e-001, 2.68620968e-001,
          2.49061137e-001, 2.49061137e-001, 2.49061137e-001,
          1.79418817e-001, 2.47303531e-001, 1.12067997e-001,
          7.18979612e-002, 5.31858541e-002, 1.55894846e-001,
          2.49061137e-001, 2.49061137e-001, 2.49061137e-001,
          2.26693347e-001, 2.49061137e-001, 8.18087384e-002,
          4.71136197e-002, 3.86139266e-002, 1.67086169e-001,
          2.38463834e-001, 1.33251041e-001, 2.49061137e-001,
          1.28354326e-001, 1.31008163e-001, 6.55896962e-002,
          3.74667011e-002, 4.90278266e-002, 1.16703518e-001,
          2.07912281e-001, 1.58016771e-001, 1.40479028e-001,
          1.23835579e-001, 1.55459434e-001, 7.12132379e-002,
          3.14046703e-002, 4.31032628e-002, 8.94437060e-002,
          1.42496452e-001, 1.32423878e-001, 1.17315255e-001,
          2.03892246e-001, 3.05566609e-001, 5.51021695e-002,
          3.21025103e-002, 2.88392324e-002, 4.27645966e-002,
          1.55770555e-001, 1.66295275e-001, 3.05566609e-001,
          3.05566609e-001, 3.05566609e-001, 6.89391121e-002,
          3.31004001e-002, 2.69840341e-002, 5.69539368e-002,
          6.72868788e-002, 7.53439292e-002, 1.00399666e-001,
          1.60409361e-001, 3.05566609e-001, 1.06740758e-001,
          5.16561382e-002, 3.17521282e-002, 3.33780944e-002,
          3.95047627e-002, 7.70773590e-002, 3.05566609e-001,
          3.05566609e-001, 3.05566609e-001, 1.08475909e-001,
          5.98637387e-002, 2.41503045e-002, 5.19786254e-002,
          2.66123027e-001, 2.38090277e-001, 2.66123027e-001,
          2.66123027e-001, 2.66123027e-001, 7.22716525e-002,
          3.31514440e-002, 1.06254622e-001, 2.66123027e-001,
          2.43670449e-001, 8.34005475e-002, 1.02061287e-001,
          1.98367223e-001, 1.91864476e-001, 5.13156764e-002,
          1.57438852e-002, 2.66123027e-001, 2.66123027e-001,
          6.78651109e-002, 1.09037638e-001, 2.66123027e-001,
          2.66123027e-001, 2.66123027e-001, 6.23781718e-002,
          3.62309590e-002, 2.70072017e-002, 1.00891471e-001,
          5.11015989e-002, 3.31907943e-002, 2.82518212e-002,
          5.23172952e-002, 5.45816943e-002, 7.09006786e-002,
          3.20562385e-002, 6.12475909e-002, 7.99765289e-002,
          2.29117170e-001, 9.77855697e-002, 2.04398662e-001,
          2.59741873e-001, 2.59741873e-001, 9.95214954e-002,
          1.93913616e-002, 2.59741873e-001, 2.59741873e-001,
          6.84371814e-002, 9.06704143e-002, 1.36725277e-001,
          1.39822632e-001, 2.47927070e-001, 1.08719833e-001,
          5.00579700e-002, 6.28149137e-002, 8.90378878e-002,
          9.90596116e-002, 6.84250668e-002, 7.21197426e-002,
          9.18917954e-002, 1.36848509e-001, 1.62717134e-001,
          1.31916910e-001, 1.01789124e-001, 1.19297057e-001,
          2.49498844e-001, 1.34918213e-001, 1.04298472e-001,
          6.91916198e-002, 1.48346022e-001, 2.15301692e-001,
          2.44659126e-001, 2.59741873e-001, 2.59741873e-001,
          6.35762438e-002, 6.03348687e-002, 5.48787788e-002,
          3.02470680e-002, 8.99787396e-002, 4.81173433e-002,
          6.06207475e-002, 1.64486051e-001, 1.41864225e-001,
          9.06220824e-002, 4.84108292e-002, 1.34772165e-002,
          1.10008917e-003, 6.25343919e-002, 8.13994780e-002,
          8.07509273e-002, 2.64362484e-001, 2.42765084e-001,
          2.79774457e-001, 1.26988873e-001, 7.25557432e-002,
          2.82031838e-002, 8.90086815e-002, 2.03373343e-001,
          2.54335552e-001, 3.28680128e-001, 3.28680128e-001,
          7.96256140e-002, 3.78515013e-002, 3.46629955e-002,
          1.56369209e-002, 3.54248136e-002, 1.53977245e-001,
          2.94085830e-001, 3.28680128e-001, 3.28680128e-001,
          8.54998529e-002, 6.10614307e-002, 2.04658601e-002,
          2.36316081e-002, 1.24226615e-001, 2.01673463e-001,
          2.67538577e-001, 2.67538577e-001, 2.67538577e-001,
          2.24669725e-001, 1.70026436e-001, 2.44041886e-002,
          2.81173307e-002, 1.05381712e-001, 2.21225709e-001,
          2.67538577e-001, 2.67538577e-001, 2.67538577e-001,
          2.85568573e-002, 1.45552605e-002, 2.29991172e-002,
          1.92264505e-002, 5.81166409e-002, 1.31560102e-001,
          2.29111359e-001, 2.67538577e-001, 7.09471256e-002,
          3.08481976e-002, 3.71849574e-002, 5.52019142e-002,
          6.88819513e-002, 1.77039057e-001, 2.49065757e-001,
          2.67538577e-001, 1.73003823e-001, 4.69343439e-002,
          1.60576582e-001, 1.07920446e-001, 3.43961939e-002,
          2.14668345e-002, 5.82762100e-002, 2.31096987e-002,
          1.29715472e-001, 1.31499618e-001, 8.47213268e-002,
          2.56928861e-001, 1.14978701e-001, 1.15741655e-001,
          2.06368789e-001, 2.01366082e-001, 2.17838064e-001,
          2.89172173e-001, 2.89172173e-001, 2.89172173e-001,
          4.24649939e-002, 9.51786935e-002, 8.37784931e-002,
          3.66538614e-002, 6.51067421e-002, 5.69630042e-002,
          7.61893541e-002, 5.55535667e-002, 1.88920554e-002,
          1.04674265e-001, 1.52817070e-001, 2.89172173e-001,
          2.89172173e-001, 2.89172173e-001, 7.19316155e-002,
          2.26929083e-001, 2.37083003e-001, 6.87134415e-002,
          2.10203260e-001, 5.21738157e-002, 1.70063362e-001,
          1.51020169e-001, 1.86293811e-001, 1.24642596e-001,
          1.29323855e-001, 9.98715013e-002, 1.57269165e-001,
          9.96056274e-002, 1.50214002e-001, 2.02601299e-001,
          2.58461922e-001, 2.58461922e-001, 2.58461922e-001,
          1.04629919e-001, 9.02505890e-002, 8.20000991e-002,
          9.36195701e-002, 4.41242643e-002, 7.83091709e-002,
          1.65793091e-001, 1.12785764e-001, 1.35114342e-001,
          1.96797147e-001, 7.42876604e-002, 6.59310594e-002,
          1.69445693e-001, 1.52221486e-001, 1.95536137e-001,
          2.58461922e-001, 2.58461922e-001, 2.58461922e-001,
          2.58461922e-001, 9.72580984e-002, 8.16127211e-002,
          9.93472710e-003, 4.92551960e-002, 5.19576408e-002,
          1.29413068e-001, 3.22619200e-001, 1.81182861e-001,
          6.70969412e-002, 4.10358049e-002, 3.59036140e-002,
          1.74549911e-002, 6.73453659e-002, 8.09960589e-002,
          1.91557437e-001, 3.22619200e-001, 3.22619200e-001,
          1.58209965e-001, 5.46986535e-002, 4.29859348e-002,
          1.76196713e-002, 8.66686776e-002, 7.30483383e-002,
          1.90809309e-001, 2.71072894e-001, 1.71021536e-001,
          1.30164862e-001, 4.82383333e-002, 3.50880064e-002,
          4.17299615e-003, 7.73372874e-002, 6.31857142e-002,
          1.93918437e-001, 3.22619200e-001, 3.22619200e-001,
          3.22619200e-001, 1.05565555e-001, 2.24267356e-002,
          5.63406423e-002, 1.30590647e-001, 1.00423917e-001,
          1.70985743e-001, 4.04560626e-001, 3.41617346e-001,
          1.75824419e-001, 5.08309118e-002, 6.11667000e-002,
          2.82401536e-002, 3.45959328e-002, 3.36786136e-002,
          6.37465641e-002, 9.49047580e-002, 9.29721519e-002,
          4.83362004e-002, 1.67013053e-002, 2.54516508e-002,
          1.12192882e-002, 4.65869568e-002, 4.33584712e-002,
          1.35831892e-001, 4.04560626e-001, 4.04560626e-001,
          4.04560626e-001, 1.75273240e-001, 1.34866303e-002,
          2.65285615e-002, 2.81255413e-002, 6.12771995e-002,
          6.54647499e-002, 7.86119998e-002, 1.26631469e-001,
          1.07810713e-001, 4.98670936e-002, 1.71658210e-002,
          3.91205288e-002, 3.71788852e-002, 4.87849265e-002,
          7.13125840e-002, 1.49004310e-001, 2.01170057e-001,
          1.52038336e-001, 5.47679663e-002, 5.01927547e-002,
          2.89004207e-001, 1.44840658e-001, 1.14851452e-001,
          5.58875389e-002, 1.95461556e-001, 2.89004207e-001,
          2.89004207e-001, 2.89004207e-001, 2.89004207e-001,
          3.72965857e-002, 3.06486133e-002, 7.45386705e-002,
          6.78590089e-002, 1.09414816e-001, 1.00336708e-001,
          8.56533200e-002, 7.48684853e-002, 4.58085388e-002,
          1.98391542e-001, 5.84767833e-002, 6.71032220e-002,
          3.93684767e-002, 1.13427483e-001, 2.42753431e-001,
          2.55085111e-001, 2.89004207e-001, 2.89004207e-001,
          2.67424375e-001, 1.03713214e-001, 5.57263419e-002,
          3.06096375e-002, 7.02751577e-002, 2.24165693e-001,
          1.87396005e-001, 2.67424375e-001, 2.67424375e-001,
          2.37089500e-001, 5.32420091e-002, 3.61330025e-002,
          3.06326412e-002, 4.78518456e-002, 1.41890958e-001,
          2.08525255e-001, 2.67424375e-001, 2.41858810e-001,
          2.67424375e-001, 7.36688972e-002, 3.95274051e-002,
          2.55229268e-002, 4.87074815e-002, 1.17008321e-001,
          1.25150144e-001, 2.67424375e-001, 2.67424375e-001,
          2.67424375e-001, 8.65276903e-002, 5.95341697e-002,
          5.06561212e-002, 7.66163096e-002, 9.27768499e-002,
          9.59506854e-002, 1.22658230e-001, 2.06667408e-001,
          1.10653862e-001, 2.35420018e-002, 4.22212742e-002,
          6.13999851e-002, 1.02940045e-001, 2.14053601e-001,
          2.02379286e-001, 3.12851429e-001, 9.14494246e-002,
          1.26215452e-002, 2.66087037e-002, 8.60091373e-002,
          1.88838869e-001, 2.99299330e-001, 2.13018760e-001,
          1.02766536e-001, 7.88393542e-002, 3.17039266e-002,
          2.39141107e-001, 8.25557187e-002, 1.15756549e-001,
          1.13311581e-001, 1.55362010e-001, 1.69923708e-001,
          9.61621255e-002, 1.27672076e-001, 1.36522636e-001,
          3.83233763e-002, 2.59393603e-001, 3.12851429e-001,
          3.12851429e-001, 3.07780325e-001, 1.64784670e-001,
          3.47249620e-002, 5.18465675e-002, 2.29011755e-002,
          3.97675298e-002, 9.99877676e-002, 1.15189336e-001,
          8.03097039e-002, 7.42282867e-002, 3.74219827e-002,
          1.10964673e-002, 7.98926875e-003, 1.01526836e-002,
          1.39533862e-001, 2.16501758e-001, 2.89536923e-001,
          2.89536923e-001, 2.77318716e-001, 2.48373728e-002,
          4.46835253e-003, 1.72271412e-002, 2.73371916e-002,
          8.98752958e-002, 2.89536923e-001, 2.89536923e-001,
          2.89536923e-001, 7.20170066e-002, 3.50271687e-002,
          9.17512178e-003, 1.32314311e-002, 7.88220949e-003,
          2.87352592e-001, 2.89536923e-001, 2.89536923e-001,
          2.89536923e-001, 1.86377525e-001, 6.70932978e-002,
          2.29053032e-002, 6.07030578e-002, 4.68538105e-002,
          7.09168762e-002, 3.83107625e-002, 6.57998994e-002,
          1.03633001e-001, 1.07082196e-001, 1.56321138e-001,
          2.09803581e-001, 7.17341974e-002, 5.91870658e-002,
          1.47796586e-001, 1.18435591e-001, 9.02761370e-002,
          2.92406589e-001, 2.92406589e-001, 2.92406589e-001,
          2.92406589e-001, 1.95035771e-001, 1.03617758e-001,
          3.22944038e-002, 4.12662774e-002, 6.35305420e-002,
          9.11242291e-002, 1.69523403e-001, 1.25807717e-001,
          1.18266754e-001, 4.69338372e-002, 5.05359396e-002,
          3.36625613e-002, 5.50291799e-002, 8.52726400e-002,
          2.68245101e-001, 2.92406589e-001, 2.92406589e-001,
          2.92406589e-001, 1.53760478e-001, 1.01041421e-001,
          3.50129120e-002, 9.06592160e-002, 5.57472706e-002,
          1.62553623e-001, 2.23467097e-001, 1.36270493e-001,
          1.53264940e-001, 7.02619702e-002, 3.03152520e-002,
          1.89185739e-002, 1.36763960e-001, 9.10387337e-002,
          1.83215201e-001, 3.24538082e-001, 3.24538082e-001,
          3.24538082e-001, 1.34086892e-001, 1.50651149e-002,
          3.09715327e-002, 4.46800143e-002, 5.55908196e-002,
          9.70027894e-002, 1.46615073e-001, 1.79351568e-001,
          1.99817970e-001, 7.43970945e-002, 4.30120379e-002,
          3.59587669e-002, 8.62997696e-002, 7.55449161e-002,
          6.80040643e-002, 2.42369816e-001, 3.24538082e-001,
          3.24538082e-001, 2.29263678e-001, 8.58523175e-002,
          2.31203227e-003, 6.37952015e-002, 4.29742374e-002,
